tree
version=v4
num_class=1
num_tree_per_iteration=1
label_index=0
max_feature_idx=9
objective=regression
feature_names=B_Biofilm_SubstratumCoverage B_Biofilm_Volume P_Biofilm_Height B_Biofilm_Roughness P_Biofilm_Volume B_Biofilm_Height P_Biofilm_SubstratumCoverage Modele_I Modele_II Modele_III
feature_infos=[-4.6213279505239653:2.0545868407490131] [-1.5898765178769954:3.4339139948491537] [-0.14480287498481728:1.6952143996020672] [-1.1941838287542945:1.9887641912340446] [-0.8014337014122499:0.90865391312861143] [-1.2057857785690289:4.0669555387169476] [-1.3309512941920705:0.43871241401428662] [0:1] [0:1] [0:1]
tree_sizes=1640 1727 1727 1716 1724 1716 1722 1702 1716 1733 1731 1730 1722 1718 1717 1728 1730 1705 1711 1733 1722 1726 1715 1706 1710 1727 1734 1723 1722 1742 1725 1725 1726 1730 1721 1717 1744 1719 1725 1718 1719 1707 1745 1710 1696 1747 1726 1749 1717 1725 1713 1731 1724 1738 1715 1710 1722 1709 1698 1745 1695 1745 1708 1718 1732 1719 1717 1712 1721 1730 1721 1733 1686 1734 1703 1748 1713 1741 1731 1727 1692 1735 1730 1726 1740 1720 1692 1735 1704 1740 1702

Tree=0
num_leaves=17
num_cat=0
split_feature=2 7 8 5 3 3 5 5 5 8 5 0 8 3 0 0
split_gain=781.369 335.976 259.611 117.051 90.3756 39.9263 31.5614 30.1548 29.8139 27.487 27.4143 15.1919 16.0179 45.4454 14.3513 14.1214
threshold=0.44890404699613057 1.0000000180025095e-35 1.0000000180025095e-35 -0.27867570066185532 0.19180434661505139 0.17810975324085387 -1.0362132258278096 1.3355575009870211 -0.27867570066185532 1.0000000180025095e-35 -1.0362132258278096 -2.3540199278474483 1.0000000180025095e-35 0.19180434661505139 1.6494159079196031 1.1139409036248078
decision_type=2 2 2 2 2 2 2 2 2 2 2 2 2 2 2 2
left_child=2 8 3 6 5 7 -1 -5 9 10 -2 -10 13 -13 -11 -6
right_child=1 -3 -4 4 15 -7 -8 -9 11 14 -12 12 -14 -15 -16 -17
leaf_value=0.71021688759644352 0.68815626909343941 0.684864715210173 0.73905979942399513 0.71251924943637068 0.72950483690380152 0.69818080898341517 0.73172417733716044 0.73544221659694242 0.72435824071294053 0.7089385598493847 0.72838699041733435 0.69580161013426622 0.71201443496146777 0.72006126231697543 0.73836222701054999 0.71126303987173567
leaf_weight=736 182 6662 13015 8366 4361 1913 9337 616 569 2388 2418 2678 3778 1085 178 470
leaf_count=736 182 6662 13015 8366 4361 1913 9337 616 569 2388 2418 2678 3778 1085 178 470
internal_value=0.71928 0.70319 0.727545 0.721736 0.716346 0.711298 0.730153 0.714092 0.712385 0.718323 0.725569 0.708603 0.707414 0.702796 0.710981 0.72773
internal_weight=58752 19938 38814 25799 15726 10895 10073 8982 13276 5166 2600 8110 7541 3763 2566 4831
internal_count=58752 19938 38814 25799 15726 10895 10073 8982 13276 5166 2600 8110 7541 3763 2566 4831
is_linear=0
shrinkage=1


Tree=1
num_leaves=17
num_cat=0
split_feature=2 7 7 9 5 5 3 3 0 5 9 5 0 5 3 0
split_gain=632.912 272.141 125.538 105.606 59.1563 42.1617 35.8497 26.7861 26.7346 24.1493 22.2639 22.2086 21.0452 19.3734 15.4482 12.3058
threshold=0.44890404699613057 1.0000000180025095e-35 1.0000000180025095e-35 1.0000000180025095e-35 0.049384123807912482 -0.27867570066185532 0.19180434661505139 0.19180434661505139 -1.4516835595258544 -0.27867570066185532 1.0000000180025095e-35 -1.0362132258278096 1.5135715512798502 -1.0362132258278096 0.18818903691811847 -2.3540199278474483
decision_type=2 2 2 2 2 2 2 2 2 2 2 2 2 2 2 2
left_child=2 9 3 -1 12 -5 8 14 -6 10 -2 -12 13 -4 -7 -11
right_child=1 -3 4 5 6 7 -8 -9 -10 15 11 -13 -14 -15 -16 -17
leaf_value=0.017808567977386454 -0.0074626487759282215 -0.030967101598672539 -0.013833699221569387 0.01221563772229374 0.010241957000697285 -0.00091165484184969284 0.0045417191498181159 0.0092160365473259228 -0.015378886276931743 0.0045772696996636717 -0.028007026451532791 0.0082030723825677315 -0.0063855322316103899 0.0098014218024892984 -0.014811643710553813 -0.010672464831470677
leaf_weight=13015 2566 6662 371 5025 455 4504 1675 2441 3875 569 182 2418 1188 5293 972 7541
leaf_count=13015 2566 6662 371 5025 455 4504 1675 2441 3875 569 182 2418 1188 5293 972 7541
internal_value=6.67061e-06 -0.0144748 0.00744554 0.0114481 -0.000635172 0.00505153 -0.00788083 0.000504237 -0.0126863 -0.00619854 -0.000854648 0.00566693 0.00571483 0.00825296 -0.00337927 -0.00960246
internal_weight=58752 19938 38814 25957 12857 12942 6005 7917 4330 13276 5166 2600 6852 5664 5476 8110
internal_count=58752 19938 38814 25957 12857 12942 6005 7917 4330 13276 5166 2600 6852 5664 5476 8110
is_linear=0
shrinkage=0.1


Tree=2
num_leaves=17
num_cat=0
split_feature=7 8 1 4 4 1 0 1 5 4 4 0 4 1 1 0
split_gain=286.203 55.3969 104.554 44.1435 48.4018 50.32 33.716 72.8771 51.5506 28.1021 37.811 25.3853 21.4472 21.1042 20.1612 17.037
threshold=1.0000000180025095e-35 1.0000000180025095e-35 0.8186389906693009 -0.72260941188824002 0.54485562010174016 0.36642897032078559 1.1139409036248078 0.10559417688071937 -0.52742690531715841 -0.72260941188824002 0.46311073299012639 1.4898213365401147 -0.34689820870738902 -1.5069044802133913 0.36642897032078559 1.1644476894004476
decision_type=2 2 2 2 2 2 2 2 2 2 2 2 2 2 2 2
left_child=1 2 6 -2 5 12 13 8 -8 -3 -11 -9 -5 -1 -15 -4
right_child=3 9 15 4 -6 -7 7 11 -10 10 -12 -13 -14 14 -16 -17
leaf_value=-0.014255692921905792 -0.021229693215026445 -0.00026076699592934567 -0.019085161744286934 0.0041980319792427221 -0.02780692322300703 -0.015047013860810247 0.014168905938902502 -0.020929871878427417 -0.032063965896485115 0.012396426836500878 -0.00043545961539056979 0.014202388390303933 -0.0055651362501464366 0.0091766191469167275 -0.0020229439840914005 -0.0032766783864873932
leaf_weight=462 2919 2982 2475 3206 1137 4712 310 240 1085 13919 2750 1433 7545 10746 1890 941
leaf_count=462 2919 2982 2475 3206 1137 4712 310 240 1085 13919 2750 1433 7545 10746 1890 941
internal_value=5.99082e-06 0.00492897 0.00116468 -0.00988912 -0.00789478 -0.00643038 0.00452362 -0.00491226 -0.0217895 0.00868001 0.0102795 0.00916107 -0.00265368 0.00673387 0.00750145 -0.0147308
internal_weight=58752 39233 19582 19519 16600 15463 16166 3068 1395 19651 16669 1673 10751 13098 12636 3416
internal_count=58752 39233 19582 19519 16600 15463 16166 3068 1395 19651 16669 1673 10751 13098 12636 3416
is_linear=0
shrinkage=0.1


Tree=3
num_leaves=17
num_cat=0
split_feature=2 7 8 1 5 3 5 5 5 1 1 5 5 3 8 1
split_gain=485.25 185.061 138.676 106.977 22.1118 23.5357 23.0059 17.8995 16.6189 17.0469 12.7462 9.2736 10.7618 8.9747 27.5595 20.1551
threshold=0.44890404699613057 1.0000000180025095e-35 1.0000000180025095e-35 0.8186389906693009 -0.286641752065386 0.093423668471562596 -1.0362132258278096 0.76908259827902936 -0.27867570066185532 -0.43482252286282974 -1.5069044802133913 0.76924321898610371 0.39832341408508742 0.31431590190609199 1.0000000180025095e-35 -0.33652192026655298
decision_type=2 2 2 2 2 2 2 2 2 2 2 2 2 2 2 2
left_child=2 8 3 4 6 7 -1 -6 9 -2 -8 12 -5 14 15 -10
right_child=1 -3 -4 11 5 -7 10 -9 13 -11 -12 -13 -14 -15 -16 -17
leaf_value=-0.0083602007516985714 -0.0078239137234691492 -0.026274867515440715 0.014934479611533144 -0.0099712893318942199 -0.0034397674497076759 0.0072898959271137168 -0.01019166260603541 0.01607866466773759 -0.056138375613484962 0.003733188736164802 0.010693157570238377 -0.0067725447421812471 -0.023293427736761116 -0.0031555966134772968 -0.0038833977966648936 -0.0157394752518441
leaf_weight=736 2302 6662 13015 1352 5815 5054 302 511 129 2864 8929 2000 1100 2162 2979 2840
leaf_count=736 2302 6662 13015 1352 5815 5054 302 511 129 2864 8929 2000 1100 2162 2979 2840
internal_value=5.36388e-06 -0.0126747 0.00651892 0.0022734 0.00521413 0.00220207 0.00865311 -0.00186277 -0.00584989 -0.00141677 0.0100097 -0.0118269 -0.0159488 -0.00867365 -0.0106792 -0.0174974
internal_weight=58752 19938 38814 25799 21347 11380 9967 6326 13276 5166 9231 4452 2452 8110 5948 2969
internal_count=58752 19938 38814 25799 21347 11380 9967 6326 13276 5166 9231 4452 2452 8110 5948 2969
is_linear=0
shrinkage=0.1


Tree=4
num_leaves=17
num_cat=0
split_feature=2 7 7 9 5 0 5 0 5 9 5 5 3 0 0 3
split_gain=393.056 149.899 69.0888 55.3495 36.6723 25.5358 21.0747 14.9704 13.4618 16.711 17.2979 13.4336 13.1371 11.836 11.1662 9.71642
threshold=0.44890404699613057 1.0000000180025095e-35 1.0000000180025095e-35 1.0000000180025095e-35 0.049384123807912482 -0.12253057291122207 -0.286641752065386 1.4898213365401147 -0.27867570066185532 1.0000000180025095e-35 -1.0362132258278096 -1.0362132258278096 0.19180434661505139 -2.3540199278474483 1.6494159079196031 -0.27587573362496581
decision_type=2 2 2 2 2 2 2 2 2 2 2 2 2 2 2 2
left_child=2 8 3 -1 7 13 -5 11 9 14 -11 -4 15 -6 -2 -8
right_child=1 -3 4 6 5 -7 12 -9 -10 10 -12 -13 -14 -15 -16 -17
leaf_value=0.013441047708254501 -0.0088013086276140517 -0.023647436236220506 -0.011310597540979796 0.009317793563221502 0.014385578784276903 -0.012681983169978829 0.0025172678233319153 -0.0050469740724310283 -0.0078064293463031842 -0.02534364886625122 0.0066132615626480085 0.0083775464786733367 0.0070296540248237643 -0.0023060690312270969 0.017152627330420788 -0.0059073127695003329
leaf_weight=13015 2388 6662 371 4968 506 2855 2721 1245 8110 182 2418 5236 2498 2644 178 2755
leaf_count=13015 2388 6662 371 4968 506 2855 2721 1245 8110 182 2418 5236 2498 2644 178 2755
internal_value=4.79618e-06 -0.0114074 0.00586702 0.0088363 -0.000127668 -0.00583255 0.00420546 0.00487201 -0.00526499 -0.0012751 0.00437497 0.00707456 0.00102023 0.000375665 -0.00700002 -0.00172119
internal_weight=58752 19938 38814 25957 12857 6005 12942 6852 13276 5166 2600 5607 7974 3150 2566 5476
internal_count=58752 19938 38814 25957 12857 6005 12942 6852 13276 5166 2600 5607 7974 3150 2566 5476
is_linear=0
shrinkage=0.1


Tree=5
num_leaves=17
num_cat=0
split_feature=2 8 1 9 8 1 0 1 5 1 1 0 1 1 5 1
split_gain=318.377 90.9861 76.5487 34.8171 86.7985 34.9953 25.0848 33.6039 28.3436 18.9664 17.8496 17.3882 15.6024 16.2633 14.6023 14.4818
threshold=0.44890404699613057 1.0000000180025095e-35 0.8186389906693009 1.0000000180025095e-35 1.0000000180025095e-35 0.8186389906693009 1.1139409036248078 0.10559417688071937 -0.52742690531715841 -0.23903923064525115 -1.5069044802133913 1.1139409036248078 -1.5069044802133913 0.36642897032078559 -0.94521607776494454 -0.42428598357210934
decision_type=2 2 2 2 2 2 2 2 2 2 2 2 2 2 2 2
left_child=1 2 11 4 -2 6 10 8 -8 -6 -5 12 -1 -14 -12 -13
right_child=3 -3 -4 5 9 -7 7 -9 -10 -11 14 15 13 -15 -16 -17
leaf_value=-0.010028558111885232 -0.021282742180418937 0.012096956890186946 -0.010086096043164731 -0.03109625752532676 -0.011611360755879985 -0.020188621201883819 0.011800953145920879 0.0016074026476160901 -0.04745824936980049 -0.00071851098341195051 -0.020745250011363812 -0.015814702181953556 0.0075916548922870877 -0.0012215236900234014 0.0048339773602223968 0.00094539554537095057
leaf_weight=607 6662 13015 4452 155 2684 1153 103 556 372 3952 236 605 14197 2456 4065 3482
leaf_count=607 6662 13015 4452 155 2684 1153 103 556 372 3952 236 605 14197 2456 4065 3482
internal_value=4.31017e-06 0.00528032 0.00184144 -0.0102666 -0.0132195 -0.00435271 -0.00102461 -0.0150801 -0.0346083 -0.00512441 0.00222781 0.00432903 0.00571783 0.00629187 0.00342975 -0.00153603
internal_weight=58752 38814 25799 19938 13298 6640 5487 1031 475 6636 4456 21347 17260 16653 4301 4087
internal_count=58752 38814 25799 19938 13298 6640 5487 1031 475 6636 4456 21347 17260 16653 4301 4087
is_linear=0
shrinkage=0.1


Tree=6
num_leaves=17
num_cat=0
split_feature=7 1 8 6 1 4 0 0 5 4 4 1 4 8 0 4
split_gain=132.844 27.8293 41.3937 19.8775 21.0225 22.7133 17.5422 38.6938 19.6564 11.6173 15.0614 9.16487 8.80096 7.24992 8.49224 8.10441
threshold=1.0000000180025095e-35 0.8186389906693009 1.0000000180025095e-35 -1.1653480565579772 0.34460709566944608 0.54485562010174016 1.7494416766878562 1.1644476894004476 1.138697819727166 0.48519536388271028 -0.72260941188824002 1.021070126480929 0.29420608197272985 1.0000000180025095e-35 1.1139409036248078 -0.31756181136921313
decision_type=2 2 2 2 2 2 2 2 2 2 2 2 2 2 2 2
left_child=1 9 6 -2 5 12 7 11 -9 10 -1 -3 -5 14 -12 -15
right_child=3 2 -4 4 -6 -7 -8 8 -10 -11 13 -13 -14 15 -16 -17
leaf_value=0.00015585196612025057 -0.014892516249965982 -0.025559855930547767 0.0053607625954848271 9.2678140798059663e-05 -0.010730753557008262 -0.019534121885904459 -0.035942320786728509 0.028105677664860135 -0.0056375832865617126 -0.0010251187382875706 0.0057938695471260954 -0.010854473274521997 -0.0059296053454838786 0.011638023974303833 -0.00095501883843523332 0.0061486415318589265
leaf_weight=4889 2592 543 3400 7216 5269 786 246 376 319 3320 9754 1932 3656 4020 2305 8129
leaf_count=4889 2592 543 3400 7216 5269 786 246 376 319 3320 9754 1932 3656 4020 2305 8129
internal_value=3.84146e-06 0.00335784 -0.00245038 -0.00673764 -0.00548877 -0.00311947 -0.0102249 -0.00822759 0.0126195 0.00457909 0.00521854 -0.0140821 -0.00193251 0.00624098 0.00450385 0.00796516
internal_weight=58752 39233 6816 19519 16927 11658 3416 3170 695 32417 29097 2475 10872 24208 12059 12149
internal_count=58752 39233 6816 19519 16927 11658 3416 3170 695 32417 29097 2475 10872 24208 12059 12149
is_linear=0
shrinkage=0.1


Tree=7
num_leaves=17
num_cat=0
split_feature=2 1 9 1 1 0 1 5 1 5 0 5 0 9 3 0
split_gain=249.837 42.2863 25.4657 26.4714 19.4407 18.8514 29.9343 22.3199 13.9227 12.3526 11.6809 11.3448 12.5989 13.1044 11.246 10.4673
threshold=0.44890404699613057 0.69519262378974411 1.0000000180025095e-35 0.8186389906693009 0.26455817382501884 1.1139409036248078 0.10559417688071937 -0.52742690531715841 -1.5069044802133913 -0.94521607776494454 0.96602817385329098 0.76924321898610371 0.4945026627727207 1.0000000180025095e-35 0.24963654339279429 1.1139409036248078
decision_type=2 2 2 2 2 2 2 2 2 2 2 2 2 2 2 2
left_child=1 15 4 5 -2 8 7 -7 -4 -10 -6 12 13 -3 -8 -1
right_child=2 11 3 -5 10 6 14 -9 9 -11 -12 -13 -14 -15 -16 -17
leaf_value=0.0072555144707468627 -0.014378487265901933 -0.0059316594096460347 -0.027474534338638314 -0.017848729638650196 -0.01009606678859639 0.010328501323191209 0.0091314202036983476 -0.042782385254025952 -0.018701466596053842 0.0040638369218871824 0.00031388586967992825 0.0023421007265775214 -0.00095643222235786455 -0.024717327396047067 -0.026713858304197837 0.0025838224888989746
leaf_weight=24999 8669 1143 158 1145 3030 100 459 378 253 4079 1673 3510 2606 550 108 5935
leaf_count=24999 8669 1143 158 1145 3030 100 459 378 253 4079 1673 3510 2606 550 108 5935
internal_value=9.67325e-06 0.00469932 -0.00905129 -0.00400906 -0.0115701 -0.00114571 -0.0132418 -0.0316712 0.00166982 0.00273369 -0.006393 -0.00187605 -0.00532005 -0.0120361 0.00229855 0.00635922
internal_weight=58795 38743 20052 6680 13372 5535 1045 478 4490 4332 4703 7809 4299 1693 567 30934
internal_count=58795 38743 20052 6680 13372 5535 1045 478 4490 4332 4703 7809 4299 1693 567 30934
is_linear=0
shrinkage=0.1


Tree=8
num_leaves=17
num_cat=0
split_feature=2 7 8 1 1 0 1 1 0 1 8 1 1 3 1 0
split_gain=202.371 75.1261 56.388 47.108 11.022 11.0831 12.2736 12.1388 10.8569 8.01147 7.00356 6.84246 6.4499 6.10841 5.97503 18.2823
threshold=0.44890404699613057 1.0000000180025095e-35 1.0000000180025095e-35 0.8186389906693009 -1.5069044802133913 1.1139409036248078 0.36642897032078559 -0.42428598357210934 1.1644476894004476 1.2816315978005846 1.0000000180025095e-35 0.44035044542192087 1.2180165298089773 -0.21870458141689011 0.8186389906693009 1.7494416766878562
decision_type=2 2 2 2 2 2 2 2 2 2 2 2 2 2 2 2
left_child=2 9 3 4 -1 6 -6 -7 -5 12 -11 -3 14 -10 -2 -16
right_child=1 11 -4 8 5 7 -8 -9 13 10 -12 -13 -14 -15 15 -17
leaf_value=-0.0098505577465962339 -0.002720195616035679 -0.018720134420246105 0.0096382069400117905 -0.010839962589530017 0.0061292201752980134 -0.013789713339216254 -0.0015416044092341596 0.0014901305614906605 0.0071864700333486853 -0.019280731694725297 -0.0040071545481889757 -0.011441228530288346 0.014660836147836637 -0.0069241607737989576 -0.0046134022123362718 -0.042310958077027998
leaf_weight=602 11086 4924 12871 3238 14300 612 2442 3451 620 598 603 1752 202 607 731 156
leaf_count=602 11086 4924 12871 3238 14300 612 2442 3451 620 598 603 1752 202 607 731 156
internal_value=8.66814e-06 -0.00814626 0.00422938 0.00153852 0.00348732 0.00387333 0.00501034 -0.000811795 -0.0078046 -0.00382191 -0.0116136 -0.0168102 -0.00305315 0.000205786 -0.00335219 -0.0112492
internal_weight=58795 20052 38743 25872 21407 20805 16742 4063 4465 13376 1201 6676 12175 1227 11973 887
internal_count=58795 20052 38743 25872 21407 20805 16742 4063 4465 13376 1201 6676 12175 1227 11973 887
is_linear=0
shrinkage=0.1


Tree=9
num_leaves=17
num_cat=0
split_feature=2 7 8 1 0 0 1 0 1 1 0 8 0 3 8 3
split_gain=163.922 60.8522 45.6746 38.1577 10.9894 24.3348 9.25611 8.7942 6.48969 5.67433 28.9747 15.5541 8.04046 13.6417 5.67315 5.65057
threshold=0.44890404699613057 1.0000000180025095e-35 1.0000000180025095e-35 0.8186389906693009 -2.1027744373818922 -1.718175571207696 -1.4696451355153095 1.1644476894004476 1.2816315978005846 -0.43482252286282974 1.4003607627555419 1.0000000180025095e-35 0.65731833018381858 -0.25125580169412504 1.0000000180025095e-35 0.035922074517810328
decision_type=2 2 2 2 2 2 2 2 2 2 2 2 2 2 2 2
left_child=2 8 3 4 -1 -6 -7 -5 9 10 11 -2 15 -14 -10 -11
right_child=1 -3 -4 7 5 6 -8 -9 14 12 -12 -13 13 -15 -16 -17
leaf_value=0.012346577769801135 0.0033535678858115934 -0.015129260079699572 0.0086743968629833974 -0.0097560133935849485 -0.043461939468820737 -0.0039307541925526594 0.0035236723354984375 0.00018519766746986029 -0.017353110881556087 -0.0055771074663302656 -0.03458029068298555 -0.0099106328552088872 0.008571234424929729 -0.0048606921436450895 -0.0036065322383951465 0.0019772531408230386
leaf_weight=1222 1763 6676 12871 3238 114 1833 18238 1227 598 3908 323 1773 1752 1330 603 1326
leaf_count=1222 1763 6676 12871 3238 114 1833 18238 1227 598 3908 323 1773 1752 1330 603 1326
internal_value=7.77373e-06 -0.0073317 0.00380644 0.00138465 0.00313858 0.00258103 0.00284286 -0.00702417 -0.00343978 -0.00274788 -0.00591697 -0.00329737 -0.00127718 0.00277484 -0.0104526 -0.00366323
internal_weight=58795 20052 38743 25872 21407 20185 20071 4465 13376 12175 3859 3536 8316 3082 1201 5234
internal_count=58795 20052 38743 25872 21407 20185 20071 4465 13376 12175 3859 3536 8316 3082 1201 5234
is_linear=0
shrinkage=0.1


Tree=10
num_leaves=17
num_cat=0
split_feature=2 7 8 1 0 1 0 1 1 3 1 0 0 1 0 0
split_gain=132.778 49.2899 36.9968 31.5829 9.77722 8.58347 10.3154 13.2067 12.8461 7.81358 7.98852 7.56253 6.10634 5.54281 5.12795 14.2048
threshold=0.44890404699613057 1.0000000180025095e-35 1.0000000180025095e-35 0.69519262378974411 -2.3540199278474483 -1.4696451355153095 0.71452499570520611 -0.42428598357210934 0.36642897032078559 -0.27587573362496581 1.0667395654496492 -0.03474488919429574 -2.3540199278474483 0.44035044542192087 1.9078337055488761 1.8446143274351503
decision_type=2 2 2 2 2 2 2 2 2 2 2 2 2 2 2 2
left_child=2 12 3 5 -5 -1 8 -8 -7 10 -6 -11 -2 -3 15 -14
right_child=1 13 -4 4 9 6 7 -9 -10 11 -12 -13 14 -15 -16 -17
leaf_value=-0.003537708977981985 0.0062666730654321601 -0.015335291346383052 0.0078069666146011359 0.015661201496778916 -0.0079355653613982884 0.0062782865572093734 -0.012748974755047405 0.0018571850296399029 -0.0027396120571245492 -0.020310354429341766 0.0037142381585519185 -0.0074682392361766483 -0.0035707314512754915 -0.0087843925242686791 0.010177931147857255 -0.041200482912046893
leaf_weight=1833 662 4924 12871 205 1249 11829 718 4486 1823 593 1113 2023 12348 1752 265 101
leaf_count=1833 662 4924 12871 205 1249 11829 718 4486 1823 593 1113 2023 12348 1752 265 101
internal_value=6.96916e-06 -0.00659858 0.00342578 0.00124616 -0.00573429 0.00299494 0.00363001 -0.000158298 0.00507407 -0.00661583 -0.00244609 -0.0103803 -0.00309587 -0.0136164 -0.00358344 -0.0038765
internal_weight=58795 20052 38743 25872 5183 20689 18856 5204 13652 4978 2362 2616 13376 6676 12714 12449
internal_count=58795 20052 38743 25872 5183 20689 18856 5204 13652 4978 2362 2616 13376 6676 12714 12449
is_linear=0
shrinkage=0.1


Tree=11
num_leaves=17
num_cat=0
split_feature=2 7 8 1 5 5 5 3 3 1 5 1 8 1 3 1
split_gain=107.551 39.925 29.9676 25.5824 11.5098 10.6265 12.1227 10.671 9.88629 8.92157 7.18913 13.123 8.57811 9.66735 5.69849 8.69848
threshold=0.44890404699613057 1.0000000180025095e-35 1.0000000180025095e-35 0.69519262378974411 0.76924321898610371 -1.0362132258278096 -0.286641752065386 0.093423668471562596 -0.50033717630676822 1.554117204140806 0.043379852032771678 -0.28303735521804624 1.0000000180025095e-35 -1.4696451355153095 -0.68267689223544348 1.0667395654496492
decision_type=2 2 2 2 2 2 2 2 2 2 2 2 2 2 2 2
left_child=2 10 3 5 14 -1 8 -8 -7 -6 11 12 13 -2 15 -5
right_child=1 -3 -4 4 9 6 7 -9 -10 -11 -12 -13 -14 -15 -16 -17
leaf_value=-0.0094954553145572291 -0.014534596752492629 -0.012254782280186774 0.0070262785640073759 -0.0097826132075771698 0.0064641426519112359 0.012354145424011507 -0.0020593822603905674 0.0042779881126715222 0.0041462311634114192 -0.0059406644031927257 -0.0051843137431008476 0.004762735225280001 -0.0086456004785527805 0.0036094939370063029 -0.013888364811100201 0.00758533165328849
leaf_weight=691 355 6676 12871 1039 1125 1827 5838 4876 7457 1196 6462 2783 2080 1696 1424 399
leaf_count=691 355 6676 12871 1039 1125 1827 5838 4876 7457 1196 6462 2783 2080 1696 1424 399
internal_value=6.25404e-06 -0.00593876 0.0030832 0.00112153 -0.0051609 0.00269543 0.00311674 0.000824794 0.00576165 7.19667e-05 -0.00278631 -0.000544993 -0.00412082 0.000468146 -0.00940446 -0.00496317
internal_weight=58795 20052 38743 25872 5183 20689 19998 10714 9284 2321 13376 6914 4131 2051 2862 1438
internal_count=58795 20052 38743 25872 5183 20689 19998 10714 9284 2321 13376 6914 4131 2051 2862 1438
is_linear=0
shrinkage=0.1


Tree=12
num_leaves=17
num_cat=0
split_feature=2 7 8 1 5 0 5 5 3 3 1 5 1 0 0 0
split_gain=87.1169 32.3393 24.2739 20.722 9.32313 12.4508 8.60781 9.81947 8.64359 8.00807 7.22667 6.22507 7.9236 6.44447 6.52256 9.94207
threshold=0.44890404699613057 1.0000000180025095e-35 1.0000000180025095e-35 0.69519262378974411 0.76924321898610371 0.4945026627727207 -1.0362132258278096 -0.286641752065386 0.093423668471562596 -0.50033717630676822 1.554117204140806 -0.27867570066185532 -0.43482252286282974 -2.1027744373818922 1.9078337055488761 1.8446143274351503
decision_type=2 2 2 2 2 2 2 2 2 2 2 2 2 2 2 2
left_child=2 11 3 6 5 -5 -1 9 -9 -8 -6 12 -2 -13 15 -15
right_child=1 -3 -4 4 10 -7 7 8 -10 -11 -12 13 -14 14 -16 -17
leaf_value=-0.0085461026428078936 -0.0041443712999703515 -0.01102932984566074 0.0063236582827325138 -0.016695289160310069 0.0058178089602631614 -0.0031786818304905596 0.011118826101575351 -0.0018534490182643506 0.0038502015306071617 0.0037316159346960881 -0.0053466675238893115 0.0052439850806665356 0.0036856596636279902 -0.0049976249230059859 0.019086115856189068 -0.03656843937657521
leaf_weight=691 2337 6676 12871 1119 1125 1743 1827 5838 4876 7457 1196 659 2891 7278 110 101
leaf_count=691 2337 6676 12871 1119 1125 1743 1827 5838 4876 7457 1196 659 2891 7278 110 101
internal_value=5.62059e-06 -0.00534491 0.00277488 0.00100937 -0.00464485 -0.00846409 0.0024259 0.00280508 0.000742316 0.00518551 6.47666e-05 -0.0025077 0.000185463 -0.00423571 -0.00506998 -0.00543046
internal_weight=58795 20052 38743 25872 5183 2862 20689 19998 10714 9284 2321 13376 5228 8148 7489 7379
internal_count=58795 20052 38743 25872 5183 2862 20689 19998 10714 9284 2321 13376 5228 8148 7489 7379
is_linear=0
shrinkage=0.1


Tree=13
num_leaves=17
num_cat=0
split_feature=7 5 8 3 1 5 1 5 5 0 0 1 6 1 5 3
split_gain=45.862 8.07956 8.91922 13.3369 20.7724 10.9573 7.91533 7.76297 7.31984 6.91899 6.23048 5.55804 3.53305 3.92566 4.24516 4.17942
threshold=1.0000000180025095e-35 -0.286641752065386 1.0000000180025095e-35 0.31431590190609199 -0.33652192026655298 -0.23697194409908942 -0.43482252286282974 2.4271566701733485 0.049384123807912482 -2.3540199278474483 1.5135715512798502 -1.4942404050155853 -1.1653480565579772 0.42719106622771325 -0.048383616197433345 -0.71969602121460663
decision_type=2 2 2 2 2 2 2 2 2 2 2 2 2 2 2 2
left_child=1 6 3 4 -3 -6 10 11 12 -10 -1 -5 -2 14 15 -14
right_child=8 2 -4 7 5 -7 -8 -9 9 -11 -12 -13 13 -15 -16 -17
leaf_value=0.001672449102297695 -0.0068845060741094246 -0.025813986601877881 0.0027659948161321579 -0.0097953017938510988 -0.023701958778088159 -0.001480008002937835 0.0058102338157917845 -0.017554845127743784 0.0031370914441404747 -0.0068168525995121717 -0.018543878473375162 0.006503115247233765 0.0057977234855223145 -0.0097788510696243808 0.0089271056455602661 -0.0021167374550192511
leaf_weight=6443 1354 386 12058 225 228 8102 8499 155 761 8465 156 2963 734 527 419 7320
leaf_count=6443 1354 386 12058 225 228 8102 8499 155 761 8465 156 2963 734 527 419 7320
internal_value=5.05e-06 0.00197855 0.000842827 -0.00108018 -0.00313978 -0.00208865 0.00379268 0.00428955 -0.00394747 -0.00599576 0.00119413 0.00535239 -0.00212226 -0.00140569 -0.000884731 -0.00139535
internal_weight=58795 39215 24117 12059 8716 8330 15098 3343 19580 9226 6599 3188 10354 9000 8473 8054
internal_count=58795 39215 24117 12059 8716 8330 15098 3343 19580 9226 6599 3188 10354 9000 8473 8054
is_linear=0
shrinkage=0.1


Tree=14
num_leaves=17
num_cat=0
split_feature=2 7 7 1 5 1 1 0 1 9 0 0 5 1 0 9
split_gain=67.7985 23.3348 17.6437 16.8556 9.75562 7.40705 7.17914 6.33193 8.75498 6.01264 5.3759 8.44929 4.68376 10.5386 21.5891 14.9535
threshold=0.44890404699613057 1.0000000180025095e-35 1.0000000180025095e-35 0.34460709566944608 1.3355575009870211 -1.5069044802133913 1.8885144124856208 0.71452499570520611 0.2340978054113142 1.0000000180025095e-35 1.9078337055488761 1.8446143274351503 0.043379852032771678 0.10559417688071937 1.5135715512798502 1.0000000180025095e-35
decision_type=2 2 2 2 2 2 2 2 2 2 2 2 2 2 2 2
left_child=2 12 9 5 -5 -4 -6 8 -7 -1 11 -11 13 14 15 -2
right_child=1 -3 3 4 6 7 -8 -9 -10 10 -12 -13 -14 -15 -16 -17
leaf_value=0.0054453032040738952 -0.0054865477735068805 -0.0095717861613352166 -0.013955047376920347 -0.0079605361153063867 0.013178935833126515 0.0029154979714716418 -0.0098310592564736666 -0.002468307908871615 0.017595122366570522 0.002340299177097271 0.016656617202116412 -0.026398205210829358 -0.004267717322196613 0.0086845914652156474 -0.020556044422370707 0.0052074950848012835
leaf_weight=12922 2625 6692 287 3479 416 6129 201 2058 435 12614 259 103 6448 1054 576 2605
leaf_count=12922 2625 6692 287 3479 416 6129 201 2058 435 12614 259 103 6448 1054 576 2605
internal_value=-2.32661e-05 -0.00475496 0.0024093 -0.000595941 -0.00590531 0.00184513 0.00568219 0.0023713 0.0038887 0.00391842 0.00239783 0.00210723 -0.0023327 -0.000513829 -0.00218387 -0.000159948
internal_weight=58903 20000 38903 13005 4096 8909 617 8622 6564 25898 12976 12717 13308 6860 5806 5230
internal_count=58903 20000 38903 13005 4096 8909 617 8622 6564 25898 12976 12717 13308 6860 5806 5230
is_linear=0
shrinkage=0.1


Tree=15
num_leaves=17
num_cat=0
split_feature=2 7 8 1 5 5 5 1 3 1 8 5 5 5 1 1
split_gain=54.9171 18.9012 14.4462 12.8524 7.13339 7.33213 6.20317 4.52394 4.49315 6.57681 6.72088 7.75774 4.76993 8.72548 5.94115 4.68602
threshold=0.44890404699613057 1.0000000180025095e-35 1.0000000180025095e-35 0.8186389906693009 -1.0362132258278096 -0.67419744821514838 0.65571871022798356 0.44035044542192087 -0.59233310626047841 0.8186389906693009 1.0000000180025095e-35 0.76733293607295894 0.30318813711858733 0.26857866613698639 1.0667395654496492 0.44035044542192087
decision_type=2 2 2 2 2 2 2 2 2 2 2 2 2 2 2 2
left_child=2 8 3 4 -1 -6 -7 -3 12 15 11 -11 13 -2 -14 -10
right_child=1 7 -4 -5 5 6 -8 -9 9 10 -12 -13 14 -15 -16 -17
leaf_value=-0.0079166092283147801 0.0032810587199935876 -0.010183419802897518 0.0049007787873749653 -0.0040565410772747798 0.0060940369963086438 0.00050428400143181877 0.0060773884925076453 -0.0043047321226870701 -0.0027732211752901632 -0.030808238622834012 -0.0023959663256295418 -0.0083650805559984873 -0.0081252475879653036 0.032717279651230856 0.0075339350184031664 0.0050002794500824009
leaf_weight=726 1303 4906 12922 4490 3868 14583 2314 1786 8620 246 645 412 767 109 354 852
leaf_count=726 1303 4906 12922 4490 3868 14583 2314 1786 8620 246 645 412 767 109 354 852
internal_value=-2.09463e-05 -0.00427948 0.00216837 0.000809339 0.00182597 0.00216665 0.00126756 -0.00861463 -0.00209945 -0.00299035 -0.00965113 -0.0167607 0.00169018 0.00555654 -0.00317978 -0.00207392
internal_weight=58903 20000 38903 25981 21491 20765 16897 6692 13308 10775 1303 658 2533 1412 1121 9472
internal_count=58903 20000 38903 25981 21491 20765 16897 6692 13308 10775 1303 658 2533 1412 1121 9472
is_linear=0
shrinkage=0.1


Tree=16
num_leaves=17
num_cat=0
split_feature=7 5 0 8 0 5 0 5 0 5 8 5 3 5 0 0
split_gain=27.0376 5.99729 7.08682 6.47879 11.9349 18.621 11.6325 5.19946 4.57277 3.75347 4.18212 2.92137 3.74426 4.2659 2.532 2.39924
threshold=1.0000000180025095e-35 -0.286641752065386 -2.3540199278474483 1.0000000180025095e-35 -1.0372358701254076 0.47431172187850229 -0.12253057291122207 0.049384123807912482 -2.3540199278474483 -1.0362132258278096 1.0000000180025095e-35 0.056456339368258127 0.19180434661505139 1.298313114742039 1.6129960487888695 1.5523535475004306
decision_type=2 2 2 2 2 2 2 2 2 2 2 2 2 2 2 2
left_child=1 9 -3 4 5 -4 -6 -2 -9 10 -1 -10 14 -14 -13 -11
right_child=7 2 3 -5 6 -7 -8 8 11 15 -12 12 13 -15 -16 -17
leaf_value=-0.0089711025620278061 -0.0015051602165767361 0.0067078044054506543 -0.027006944315499787 0.001744225291503739 0.0034903050652077441 -0.00032330364004079043 -0.0034155660578907921 0.0025275555337801389 -0.024808442860462493 0.0030874296433761124 0.0035604928683765497 -0.007164396077848874 -0.00013523770039745303 -0.014481808327711357 -0.00045107169521964828 0.0077022233013207438
leaf_weight=529 10399 1718 456 11185 4121 613 5976 788 77 12837 536 5643 1934 232 624 1235
leaf_count=529 10399 1718 456 11185 4121 613 5976 788 77 12837 536 5643 1934 232 624 1235
internal_value=-1.88547e-05 0.00149973 0.000518886 4.31317e-05 -0.00166084 -0.0117079 -0.000596972 -0.00304152 -0.00475974 0.00305931 -0.00266434 -0.00543457 -0.00525724 -0.00167281 -0.00649601 0.00349252
internal_weight=58903 39206 24069 22351 11166 1069 10097 19697 9298 15137 1065 8510 8433 2166 6267 14072
internal_count=58903 39206 24069 22351 11166 1069 10097 19697 9298 15137 1065 8510 8433 2166 6267 14072
is_linear=0
shrinkage=0.1


Tree=17
num_leaves=17
num_cat=0
split_feature=2 7 7 5 0 5 0 5 3 0 5 3 0 0 0 0
split_gain=44.4729 13.0313 10.0325 8.0856 7.75554 5.75534 5.05287 5.65842 4.76933 11.9113 5.44126 3.86667 14.3508 13.9206 6.03648 15.6648
threshold=0.44890404699613057 1.0000000180025095e-35 1.0000000180025095e-35 0.049384123807912482 -2.3540199278474483 0.026352830970614961 1.5633482219549919 -1.0362132258278096 0.19180434661505139 -1.6519927847448888 0.067133324995769988 -0.59233310626047841 1.0700481017007402 1.7269799003607642 1.3673337914447703 1.7801494588558684
decision_type=2 2 2 2 2 2 2 2 2 2 2 2 2 2 2 2
left_child=2 11 -1 5 -5 6 7 -4 10 -10 -6 12 -2 -14 -13 -16
right_child=1 -3 3 4 8 -7 -8 -9 9 -11 -12 14 13 -15 15 -17
leaf_value=0.0030911539412838088 -0.0034191947946592056 -0.0074488233969620694 -0.0094155004271517188 0.008699379430555005 0.027287886751425239 0.015604586313213301 -0.0054553282608513012 0.0033735059675621877 -0.03144152215956774 0.0033304681696716778 -0.0061890505900782673 -0.0018044077296728196 0.018731287428929599 -0.019461399987154085 -0.01487604985135637 0.0047609342770466682
leaf_weight=25898 1780 6692 370 522 49 299 919 5295 106 1371 4074 8972 641 112 1185 618
leaf_count=25898 1780 6692 370 522 49 299 919 5295 106 1371 4074 8972 641 112 1185 618
internal_value=-1.69839e-05 -0.00384923 0.00195318 -0.000312977 -0.00295684 0.00203856 0.00142215 0.00253797 -0.00404359 0.000832129 -0.00579024 -0.00203909 0.00147644 0.0130478 -0.00286555 -0.0081453
internal_weight=58903 20000 38903 13005 6122 6883 6584 5665 5600 1477 4123 13308 2533 753 10775 1803
internal_count=58903 20000 38903 13005 6122 6883 6584 5665 5600 1477 4123 13308 2533 753 10775 1803
is_linear=0
shrinkage=0.1


Tree=18
num_leaves=17
num_cat=0
split_feature=2 1 0 0 5 3 3 0 9 1 1 0 1 5 1 0
split_gain=36.0233 7.41462 5.10658 6.67881 5.52102 5.66759 5.36146 5.35085 3.67004 11.4793 10.1196 11.0875 15.3628 11.5342 10.5297 10.2467
threshold=0.44890404699613057 1.476996724435409 -2.3540199278474483 -1.8519154784401299 -0.286641752065386 0.093423668471562596 -0.50033717630676822 -2.1027744373818922 1.0000000180025095e-35 0.26455817382501884 0.8186389906693009 1.1139409036248078 0.10559417688071937 -0.52742690531715841 -1.5069044802133913 1.5725820305789397
decision_type=2 2 2 2 2 2 2 2 2 2 2 2 2 2 2 2
left_child=1 2 -1 7 6 -6 -5 -4 9 -2 11 14 13 -13 -10 -14
right_child=8 -3 3 4 5 -7 -8 -9 10 -11 -12 12 15 -15 -16 -17
leaf_value=0.0072331541926773345 -0.0065862003355778298 -0.0031475892274827229 0.00083178146499887661 0.0074413630269027919 -0.00039870075920249952 0.003226439297514145 0.0025429475303831465 -0.025282473932155564 -0.022427217103681455 -0.00045403278645575885 -0.00999640590055886 0.006645845093296761 -0.020426090899374034 -0.031187071039479569 0.0033820868698254216 0.0099454633833948401
leaf_weight=1871 8639 2855 152 2737 12321 6635 12170 162 164 4721 1167 104 151 357 4278 419
leaf_count=1871 8639 2855 152 2737 12321 6635 12170 162 164 4721 1167 104 151 357 4278 419
internal_value=-1.5289e-05 0.00175786 0.00214639 0.00186788 0.00200252 0.000870181 0.00344239 -0.012646 -0.00346433 -0.00441933 -0.00154275 0.000259989 -0.00908176 -0.0226523 0.00242849 0.00189635
internal_weight=58903 38903 36048 34177 33863 18956 14907 314 20000 13360 6640 5473 1031 461 4442 570
internal_count=58903 38903 36048 34177 33863 18956 14907 314 20000 13360 6640 5473 1031 461 4442 570
is_linear=0
shrinkage=0.1


Tree=19
num_leaves=17
num_cat=0
split_feature=2 5 0 0 0 1 0 5 1 0 1 1 0 1 3 9
split_gain=29.1795 6.01737 6.20698 5.50672 8.34291 6.56076 6.37267 4.48586 3.5298 3.43037 7.03642 3.68442 3.28733 17.4849 9.67537 7.82965
threshold=0.44890404699613057 -0.286641752065386 -2.3540199278474483 -1.6911183645421741 -1.4516835595258544 1.1468737120916348 -1.0192406802954814 -1.0362132258278096 -1.5069044802133913 0.086454217488404969 -0.38781682799980449 0.27053936552217189 0.9857842295138306 0.10559417688071937 -0.24481823103696582 1.0000000180025095e-35
decision_type=2 2 2 2 2 2 2 2 2 2 2 2 2 2 2 2
left_child=1 7 -3 5 -5 -4 -6 -1 -9 11 -11 -10 15 -14 -15 -2
right_child=12 2 3 4 6 -7 -8 8 9 10 -12 -13 13 14 -16 -17
leaf_value=-0.0030618049858116636 -0.0053871033233968855 0.0063782777039721314 -0.019533016136652984 0.013838333363221409 -0.0068931994106722939 0.00092665109711778789 0.00055570104080284615 -0.0049959393193470467 0.0062696135149003396 -0.0028276430015606226 0.0042182093455552681 -0.0096137475753057568 -0.0086007595494066707 0.010413460290484792 -0.0014812930504727382 -0.00061814716156416471
leaf_weight=1080 10381 1721 307 453 1219 320 19826 459 5369 1841 6158 150 1729 1318 1421 5151
leaf_count=1080 10381 1721 307 453 1219 320 19826 459 5369 1841 6158 150 1729 1318 1421 5151
internal_value=-1.37788e-05 0.00158207 0.000593793 0.000143801 0.000413261 -0.00909296 0.000124184 0.0031472 0.003627 0.00391985 0.00259654 0.00583766 -0.00311795 -0.000727516 0.00424262 -0.00380557
internal_weight=58903 38903 23846 22125 21498 627 21045 15057 13977 13518 7999 5519 20000 4468 2739 15532
internal_count=58903 38903 23846 22125 21498 627 21045 15057 13977 13518 7999 5519 20000 4468 2739 15532
is_linear=0
shrinkage=0.1


Tree=20
num_leaves=17
num_cat=0
split_feature=2 1 5 5 1 0 0 5 0 1 3 0 9 3 9 1
split_gain=23.6354 5.72986 3.94117 5.84633 4.45856 9.18691 8.18316 3.04595 2.66274 14.163 7.83724 6.8018 8.805 6.41913 6.34202 19.9583
threshold=0.44890404699613057 1.476996724435409 2.4271566701733485 1.3355575009870211 0.34460709566944608 -2.3540199278474483 0.71452499570520611 0.76733293607295894 0.9857842295138306 0.10559417688071937 -0.24481823103696582 1.4003607627555419 1.0000000180025095e-35 -0.18274947613772471 1.0000000180025095e-35 0.36642897032078559
decision_type=2 2 2 2 2 2 2 2 2 2 2 2 2 2 2 2
left_child=1 2 3 4 6 -6 -1 -3 14 11 -11 -10 -13 -12 -2 -16
right_child=8 7 -4 -5 5 -7 -8 -9 9 10 13 12 -14 -15 15 -17
leaf_value=0.0032354739210276799 -0.0048484003462283109 -0.0076478529542657533 -0.0095699567075083515 0.0085825609644769301 -0.025343544202991283 3.9083829146196124e-05 -0.00093103342474108893 -0.00064676402385183216 0.00139320101228148 0.0093722252099481193 -0.020192596734005877 -0.0060133871242187623 -0.024468778126882064 0.0010616275743342523 0.0033174228561495735 -0.010558056236433569
leaf_weight=20067 10381 914 304 1249 145 8122 6161 1941 554 1318 160 791 384 1261 3713 1438
leaf_count=20067 10381 914 304 1249 145 8122 6161 1941 554 1318 160 791 384 1261 3713 1438
internal_value=-1.24064e-05 0.00142386 0.00176541 0.00186185 0.00161847 -0.000406522 0.00225675 -0.00288841 -0.00280616 -0.000654763 0.0038184 -0.00774075 -0.0120471 -0.00133318 -0.00342502 -0.000556334
internal_weight=58903 38903 36048 35744 34495 8267 26228 2855 20000 4468 2739 1729 1175 1421 15532 5151
internal_count=58903 38903 36048 35744 34495 8267 26228 2855 20000 4468 2739 1729 1175 1421 15532 5151
is_linear=0
shrinkage=0.1


Tree=21
num_leaves=17
num_cat=0
split_feature=2 7 7 1 1 5 2 5 1 0 9 5 0 3 0 1
split_gain=18.6828 8.10186 7.98113 8.28825 6.41075 5.98624 4.50367 4.0143 6.38645 9.66057 5.68903 5.55046 5.62875 7.47373 5.26488 5.25574
threshold=0.44890404699613057 1.0000000180025095e-35 1.0000000180025095e-35 0.36642897032078559 -1.5069044802133913 1.3355575009870211 -0.0012136554066951072 0.067133324995769988 -0.28303735521804624 1.5135715512798502 1.0000000180025095e-35 0.23424139207882436 0.9857842295138306 -0.24481823103696582 -0.44829067170589215 -0.30913239890471261
decision_type=2 2 2 2 2 2 2 2 2 2 2 2 2 2 2 2
left_child=2 7 -1 4 -4 -5 -6 8 9 10 -2 -9 14 -14 -13 -11
right_child=1 -3 3 5 6 -7 -8 11 -10 15 -12 12 13 -15 -16 -17
leaf_value=0.0023299635385375527 -0.0044488847933588467 -0.0052950496391483207 -0.013215422102372146 -0.0061311603508502482 -9.9578930521206266e-06 0.0047358946794748575 0.0049782178323567097 -0.0093783483441117737 0.0040547439364318916 -0.022140565558012804 0.0033677738156373122 0.0010612243936977052 0.014513316079981001 -0.0030982593632712333 -0.0061854889259819234 0.012108395667748465
leaf_weight=26002 1821 6643 307 3387 6031 596 2586 1086 3053 320 1905 1739 464 501 2367 52
leaf_count=26002 1821 6643 307 3387 6031 596 2586 1086 3053 320 1905 1739 464 501 2367 52
internal_value=4.51492e-05 -0.00244285 0.00132091 -0.000711894 0.000981048 -0.00450491 0.00148705 -0.00101906 0.000592491 -0.00198689 -0.000452427 -0.00289078 -0.00150116 0.00537062 -0.00311634 -0.0173499
internal_weight=58860 19951 38909 12907 8924 3983 8617 13308 7151 4098 3726 6157 5071 965 4106 372
internal_count=58860 19951 38909 12907 8924 3983 8617 13308 7151 4098 3726 6157 5071 965 4106 372
is_linear=0
shrinkage=0.1


Tree=22
num_leaves=17
num_cat=0
split_feature=2 7 7 1 1 1 1 0 0 1 0 1 1 9 3 0
split_gain=15.1331 6.5625 6.46478 6.71345 5.29802 5.63809 5.21555 4.22125 3.955 7.30955 3.77707 3.12014 3.17702 2.91934 4.5666 4.17608
threshold=0.44890404699613057 1.0000000180025095e-35 1.0000000180025095e-35 0.36642897032078559 0.5101720241141442 0.67117717708709179 -1.4897000745637892 1.807936780621888 0.71452499570520611 0.2340978054113142 -2.1027744373818922 0.39230459920501309 -1.4696451355153095 1.0000000180025095e-35 -0.46701920157061361 1.1644476894004476
decision_type=2 2 2 2 2 2 2 2 2 2 2 2 2 2 2 2
left_child=2 10 13 6 7 -6 -4 -5 9 -8 -2 12 -3 -1 15 -15
right_child=1 11 3 4 5 -7 8 -9 -10 -11 -12 -13 -14 14 -16 -17
leaf_value=0.0031541184959459471 0.0062753681752729142 0.001628319929413338 -0.00956949778981038 -0.014499983354560582 0.0074772042632813319 -0.0040684084091853366 0.0017207432796416443 0.0067293511181281494 -0.0023225574267593725 0.01461411503946569 -0.0013117597711236721 -0.0014370574383535274 -0.0070492078219525885 0.0018140902023832456 -4.2005029597028416e-05 0.0095226871627132493
leaf_weight=13031 692 469 453 662 501 2711 5897 109 2099 475 12616 1978 4196 2176 9757 1038
leaf_count=13031 692 469 453 662 501 2711 5897 109 2099 475 12616 1978 4196 2176 9757 1038
internal_value=4.06283e-05 -0.00219858 0.00118881 -0.000640715 -0.00405442 -0.00226726 0.000882927 -0.0114978 0.00144205 0.0026822 -0.000917165 -0.00476556 -0.00617675 0.00209697 0.00103489 0.00430403
internal_weight=58860 19951 38909 12907 3983 3212 8924 771 8471 6372 13308 6643 4665 26002 12971 3214
internal_count=58860 19951 38909 12907 3983 3212 8924 771 8471 6372 13308 6643 4665 26002 12971 3214
is_linear=0
shrinkage=0.1


Tree=23
num_leaves=17
num_cat=0
split_feature=2 1 5 5 5 3 0 5 9 0 0 0 5 1 0 9
split_gain=12.2579 3.9911 3.25953 4.6203 6.53212 5.87022 5.8354 2.44956 2.50633 2.32299 2.24241 7.05793 2.68139 3.43193 3.4936 3.40883
threshold=0.44890404699613057 1.476996724435409 2.4271566701733485 0.65571871022798356 0.46320191862047683 1.2498347963506597 -1.2040027486686129 0.76733293607295894 1.0000000180025095e-35 -0.46804672736643088 -0.56124377254767144 -0.37265933688369612 1.4586971821487869 2.5316630115028373 1.3459886617419698 1.0000000180025095e-35
decision_type=2 2 2 2 2 2 2 2 2 2 2 2 2 2 2 2
left_child=1 2 3 4 5 -1 -6 8 -3 -5 -2 -12 13 -13 -15 -14
right_child=10 7 -4 9 6 -7 -8 -9 -10 -11 11 12 15 14 -16 -17
leaf_value=0.0014849210768087225 0.00024936871056956844 -0.0029326802115092572 -0.0087819585749880497 0.0064040354073218444 -0.023202535279328935 -0.020220007723956067 -0.0029823415280833972 -0.00048018836964738333 -0.013754308592615989 0.0017656059766364999 -0.012334540707847522 -0.0019850770095243067 -0.0033985771124485729 -0.0026849450933837359 0.026604623965293894 -0.022685874439164051
leaf_weight=29146 3683 623 314 2586 155 125 1785 1995 326 1854 696 15004 265 78 85 140
leaf_count=29146 3683 623 314 2586 155 125 1785 1995 326 1854 696 15004 265 78 85 140
internal_value=3.65685e-05 0.00106994 0.00135971 0.00144907 0.00101968 0.00139213 -0.00459951 -0.00246987 -0.00665177 0.00446733 -0.00197872 -0.00248316 -0.00204273 -0.00182823 0.0125976 -0.0100717
internal_weight=58860 38909 35965 35651 31211 29271 1940 2944 949 4440 19951 16268 15572 15167 163 405
internal_count=58860 38909 35965 35651 31211 29271 1940 2944 949 4440 19951 16268 15572 15167 163 405
is_linear=0
shrinkage=0.1


Tree=24
num_leaves=17
num_cat=0
split_feature=7 5 1 0 1 8 5 0 1 0 5 0 3 8 8 0
split_gain=10.4151 3.09214 6.3874 13.6939 8.07499 6.48346 5.62954 7.43398 5.62214 5.5555 7.08223 7.66131 4.9886 7.41784 4.67547 4.10006
threshold=1.0000000180025095e-35 0.049384123807912482 -0.23903923064525115 1.5135715512798502 0.82281345828201558 1.0000000180025095e-35 0.23424139207882436 1.8446143274351503 -0.30913239890471261 0.9857842295138306 0.40166211779015365 1.7851743686651795 0.19180434661505139 1.0000000180025095e-35 1.0000000180025095e-35 1.8747637862910171
decision_type=2 2 2 2 2 2 2 2 2 2 2 2 2 2 2 2
left_child=1 2 3 -1 -4 8 7 -3 -5 12 15 -12 13 -8 -6 -11
right_child=-2 6 4 5 14 -7 9 -9 -10 10 11 -13 -14 -15 -16 -17
leaf_value=0.0014575122723044065 -0.0018533477515830787 -0.0025390238775048063 0.0048234831285853437 -0.02251151702243194 -0.02450233843191077 -0.0026879996833612621 -0.0045735306254410489 -0.024330229885897222 0.0056553972932171246 0.015044582261141862 0.0028187858459397135 -0.019832829787091975 0.0027805071717201682 0.0015164737389580416 0.00062682626042065252 0.0030339084266954026
leaf_weight=12198 19550 3389 7155 451 149 559 3988 164 84 769 1558 165 4071 4012 147 451
leaf_count=12198 19550 3389 7155 451 149 559 3988 164 84 769 1558 165 4071 4012 147 451
internal_value=3.28907e-05 0.000970979 0.00181007 0.000496219 0.00415381 -0.0102208 3.35299e-05 -0.00354583 -0.0180884 0.000880606 0.00477624 0.000648066 -6.92091e-05 -0.0015194 -0.0120277 0.0106056
internal_weight=58860 39310 20743 13292 7451 1094 18567 3553 535 15014 2943 1723 12071 8000 296 1220
internal_count=58860 39310 20743 13292 7451 1094 18567 3553 535 15014 2943 1723 12071 8000 296 1220
is_linear=0
shrinkage=0.1


Tree=25
num_leaves=17
num_cat=0
split_feature=2 8 1 1 7 0 0 0 1 1 0 1 8 0 1 7
split_gain=9.92243 4.85778 4.55099 4.67558 4.55038 3.69183 11.1781 2.91419 2.4267 2.56639 2.42169 2.26319 4.24921 2.02666 1.93822 1.84489
threshold=0.44890404699613057 1.0000000180025095e-35 1.476996724435409 -1.5069044802133913 1.0000000180025095e-35 -3.5186823569833359 -3.1837742655901047 -2.1027744373818922 0.39230459920501309 -1.4696451355153095 0.16680982649029472 -1.5069044802133913 1.0000000180025095e-35 0.62523621370898608 1.554117204140806 1.0000000180025095e-35
decision_type=2 2 2 2 2 2 2 2 2 2 2 2 2 2 2 2
left_child=1 2 3 -1 7 -5 -7 -2 9 -6 -4 12 -9 -11 -12 -16
right_child=4 -3 10 5 8 6 -8 11 -10 13 14 -13 -14 -15 15 -17
leaf_value=-0.0081979049812007359 0.0056012013883557504 0.0025339067088727425 -0.009638456915789094 0.0094120313413103666 0.0018492641787783701 -0.032419999465849773 0.00073580071028531233 -0.020539634056073165 -0.00098571900055150863 -0.0073878883062972441 -0.015327220242637475 -0.00085050477716147035 0.002907437524743772 -0.0025906152976458447 0.0029160662074886458 -0.0047679716717696965
leaf_weight=596 692 13031 618 484 469 102 22726 164 1978 2938 102 12306 146 1258 613 637
leaf_count=596 692 13031 618 484 469 102 22726 164 1978 2938 102 12306 146 1258 613 637
internal_value=2.95861e-05 0.000959317 0.000166409 0.000547094 -0.00178359 0.000770726 0.000587449 -0.00071655 -0.00392111 -0.00516564 -0.00445324 -0.00106316 -0.0095 -0.00594979 -0.00208221 -0.000999692
internal_weight=58860 38909 25878 23908 19951 23312 22828 13308 6643 4665 1970 12616 310 4196 1352 1250
internal_count=58860 38909 25878 23908 19951 23312 22828 13308 6643 4665 1970 12616 310 4196 1352 1250
is_linear=0
shrinkage=0.1


Tree=26
num_leaves=17
num_cat=0
split_feature=7 5 5 1 1 5 8 5 5 5 8 1 5 5 8 3
split_gain=7.1248 2.56174 2.54052 5.10707 6.54467 4.52548 5.14688 8.85602 5.99935 4.48373 3.74515 2.77233 3.11974 2.68077 6.23348 2.61407
threshold=1.0000000180025095e-35 -0.48365714958324441 0.049384123807912482 -0.23903923064525115 0.82281345828201558 0.23424139207882436 1.0000000180025095e-35 0.056456339368258127 0.13793395178436146 0.29247314201077523 1.0000000180025095e-35 0.10559417688071937 -0.23697194409908942 0.75747254121576424 1.0000000180025095e-35 0.02062130567276221
decision_type=2 2 2 2 2 2 2 2 2 2 2 2 2 2 2 2
left_child=2 -2 3 15 11 6 7 -4 -9 -7 -6 -5 -13 14 -11 -1
right_child=1 -3 5 4 10 9 -8 8 -10 13 -12 12 -14 -15 -16 -17
leaf_value=-0.001409013393676302 0.00024775021727747995 -0.0022691130311881407 -0.040898699526425893 0.0024641963912977629 -0.022073675652231714 0.006959657915589907 0.00054632603444600819 -0.00016962434334258697 -0.012096490774805587 -0.0038942686942342293 0.00041686000704829686 0.0037470249457634466 0.010009434485544359 0.0017495534329377536 0.0018364531750818217 0.0014824742561900732
leaf_weight=5030 5714 13836 74 3902 149 1067 1778 928 773 3803 147 1866 1387 6355 3789 8262
leaf_count=5030 5714 13836 74 3902 149 1067 1778 928 773 3803 147 1866 1387 6355 3789 8262
internal_value=2.66082e-05 -0.00153349 0.000802496 0.00156307 0.00365879 -4.7215e-05 -0.00325646 -0.00706551 -0.00559029 0.000712253 -0.010909 0.00426168 0.00641753 0.000234226 -0.00103419 0.000388254
internal_weight=58860 19550 39310 20743 7451 18567 3553 1775 1701 15014 296 7155 3253 13947 7592 13292
internal_count=58860 19550 39310 20743 7451 18567 3553 1775 1701 15014 296 7155 3253 13947 7592 13292
is_linear=0
shrinkage=0.1


Tree=27
num_leaves=17
num_cat=0
split_feature=7 3 3 1 5 8 3 1 1 1 8 5 5 1 1 1
split_gain=5.77099 2.41769 3.6983 3.29391 5.13344 9.30526 3.16103 2.35448 6.28167 3.06921 2.77683 2.61692 2.07502 2.33983 2.13141 3.41559
threshold=1.0000000180025095e-35 -0.59233310626047841 -0.58985458658047585 0.8186389906693009 0.57005147219300023 1.0000000180025095e-35 -0.64066763005563143 1.0667395654496492 1.0149154049729814 1.0726069104672535 1.0000000180025095e-35 0.30318813711858733 -0.48365714958324441 -0.25569384723560085 -0.25145449855953766 0.2340978054113142
decision_type=2 2 2 2 2 2 2 2 2 2 2 2 2 2 2 2
left_child=1 6 -3 -4 5 -5 7 8 11 -9 -10 -1 13 -2 -14 -16
right_child=12 2 3 4 -6 -7 -8 9 10 -11 -12 -13 14 -15 15 -17
leaf_value=0.003346340011803171 -0.0012722485559858922 -0.018751203956909351 0.00077896731974979433 -0.019738658521409002 -0.00039048769641953913 0.0011853602803493157 0.0085533733044976818 0.018136119129098942 -0.018190832427643879 0.0035866589527183178 -0.0027510720116990829 -0.0016198577921317345 -3.8196330188265732e-05 0.002961478195797861 -0.0056292343538847508 -0.0015989224116595695
leaf_weight=3290 3696 101 27864 422 2968 428 737 163 231 1305 235 1566 3836 2018 3007 6993
leaf_count=3290 3696 101 27864 422 2968 428 737 163 231 1305 235 1566 3836 2018 3007 6993
internal_value=2.39352e-05 0.000722229 0.000340572 0.000401523 -0.00235298 -0.00920416 0.00233373 0.00165846 0.000680369 0.00520385 -0.0104082 0.00174477 -0.00138014 0.000222976 -0.0020422 -0.00281091
internal_weight=58860 39310 31783 31682 3818 850 7527 6790 5322 1468 466 4856 19550 5714 13836 10000
internal_count=58860 39310 31783 31682 3818 850 7527 6790 5322 1468 466 4856 19550 5714 13836 10000
is_linear=0
shrinkage=0.1


Tree=28
num_leaves=17
num_cat=0
split_feature=2 0 1 9 5 1 3 5 5 0 3 5 1 5 7 0
split_gain=8.98149 2.97339 6.05461 5.42009 4.09018 5.82292 5.71836 8.39456 6.44986 6.24797 5.34881 8.46186 4.19673 3.90897 4.75361 3.85013
threshold=0.44890404699613057 0.5130132279677041 -0.36403337469185243 1.0000000180025095e-35 0.13479265215440189 -1.454079892670544 0.19180434661505139 0.76733293607295894 1.298313114742039 0.50549733722728185 1.2498347963506597 -0.14116966205893672 0.941649351111571 -0.49243243508348594 1.0000000180025095e-35 -1.7086840749012191
decision_type=2 2 2 2 2 2 2 2 2 2 2 2 2 2 2 2
left_child=1 4 3 -3 5 -1 7 9 -8 -6 11 -7 -9 -4 -15 -10
right_child=-2 2 13 -5 6 10 8 12 15 -11 -12 -13 -14 14 -16 -17
leaf_value=-0.0016146403628010467 -0.0017501413273467035 -0.0017932152587757711 0.0036036459278515117 -0.012945631912513697 -0.0045110171587629672 0.002713351257382477 0.0048804029455750799 0.0078324830689039896 0.0036402875397907107 0.016200437211814144 -0.01735675001054553 0.010370688146570058 -0.00016039263577836114 0.0010934400613450323 -0.004040945394749881 -0.010804181613575518
leaf_weight=2532 20053 1322 3034 650 4875 8937 3550 1081 302 150 119 1721 1674 5465 2691 474
leaf_count=2532 20053 1322 3034 650 4875 8937 3550 1081 302 150 119 1721 1674 5465 2691 474
internal_value=-3.34684e-05 0.000858887 -0.000361061 -0.00546995 0.00149068 0.00270059 0.000160521 -0.00146011 0.0030751 -0.0038923 0.00371445 0.00394995 0.00297602 0.000539316 -0.000600626 -0.00518291
internal_weight=58630 38577 13162 1972 25415 13309 12106 7780 4326 5025 10777 10658 2755 11190 8156 776
internal_count=58630 38577 13162 1972 25415 13309 12106 7780 4326 5025 10777 10658 2755 11190 8156 776
is_linear=0
shrinkage=0.1


Tree=29
num_leaves=17
num_cat=0
split_feature=2 0 1 8 3 1 0 1 3 9 1 8 0 7 0 0
split_gain=7.275 2.40851 4.90444 5.62925 3.34881 3.16609 3.87869 3.19925 2.46982 2.66359 4.2846 2.29263 3.0313 2.28132 2.15813 2.27903
threshold=0.44890404699613057 0.5130132279677041 -0.36403337469185243 1.0000000180025095e-35 -0.46701920157061361 0.69519262378974411 0.50549733722728185 -1.4897000745637892 0.030006674214870861 1.0000000180025095e-35 0.10559417688071937 1.0000000180025095e-35 -0.23900532554543794 1.0000000180025095e-35 0.32326919773234924 0.25283456450781755
decision_type=2 2 2 2 2 2 2 2 2 2 2 2 2 2 2 2
left_child=1 5 3 4 -3 7 11 -1 9 -4 -11 12 -7 -2 15 -9
right_child=13 2 8 -5 -6 6 -8 14 -10 10 -12 -13 -14 -15 -16 -17
leaf_value=-0.0029027290554695375 -0.00082514873288466847 0.003223739937748426 0.00010691231533191297 0.0026524512231609707 -0.010824264108882604 -0.0001195130752847648 0.014581908335004249 0.0020575850480820247 -0.0020410898183823851 -0.00066845997335829928 0.0073369657409833771 0.0015918352713426528 -0.0068965758395366479 -0.0030920856756131015 0.0058187609695007341 -0.0042378820639497224
leaf_weight=1337 13419 200 5583 655 1117 1324 150 17879 2875 1167 1565 1331 1316 6634 1484 594
leaf_count=1337 13419 200 5583 655 1117 1324 150 17879 2875 1167 1565 1331 1316 6634 1484 594
internal_value=-3.01227e-05 0.000772997 -0.00032497 -0.00492307 -0.0086907 0.00134162 -0.00119546 0.00183263 0.000485385 0.00135898 0.00391746 -0.00179197 -0.00349802 -0.00157513 0.0021499 0.00185512
internal_weight=58630 38577 13162 1972 1317 25415 4121 21294 11190 8315 2732 3971 2640 20053 19957 18473
internal_count=58630 38577 13162 1972 1317 25415 4121 21294 11190 8315 2732 3971 2640 20053 19957 18473
is_linear=0
shrinkage=0.1


Tree=30
num_leaves=17
num_cat=0
split_feature=2 7 1 1 8 1 1 1 1 1 1 1 8 1 1 1
split_gain=5.89279 1.84788 2.10973 1.68802 1.67502 2.89823 3.09321 2.62365 4.30129 2.81372 1.9201 1.46399 3.43916 1.55187 4.74099 3.63879
threshold=0.44890404699613057 1.0000000180025095e-35 0.44035044542192087 -1.5069044802133913 1.0000000180025095e-35 -1.5069044802133913 1.476996724435409 1.0667395654496492 0.8186389906693009 1.0726069104672535 1.554117204140806 -1.5069044802133913 1.0000000180025095e-35 0.8186389906693009 0.91027044330177309 0.50202800010038584
decision_type=2 2 2 2 2 2 2 2 2 2 2 2 2 2 2 2
left_child=4 11 3 -3 5 -1 7 8 -7 -9 -8 12 -2 15 -15 -13
right_child=1 2 -4 -5 -6 6 10 9 -10 -11 -12 13 -14 14 -16 -17
leaf_value=-0.006741194247162581 -0.01775209929795029 0.0063683480717351085 0.00016642599102118568 -0.0042007044279543 0.0016242190859763904 0.00080335530045246104 -0.012416173326401058 0.021556084495738835 -0.0052392498837196336 0.0038124897938120171 -0.0023489924836670954 -0.0006717238423318971 0.0027844147271510709 -0.017169403453648768 -0.0014899397999185134 0.0055567468181888903
leaf_weight=583 161 156 1776 4702 12921 20687 213 97 1249 1120 1707 9722 165 212 2121 1038
leaf_count=583 161 156 1776 4702 12921 20687 213 97 1249 1120 1707 9722 165 212 2121 1038
internal_value=-2.7109e-05 -0.00141762 -0.00278288 -0.00386111 0.000695701 0.000228064 0.000390157 0.000710021 0.000459261 0.00522918 -0.00346673 -0.000742635 -0.00736065 -0.000577765 -0.00291575 -7.07942e-05
internal_weight=58630 20053 6634 4858 38577 25656 25073 23153 21936 1217 1920 13419 326 13093 2333 10760
internal_count=58630 20053 6634 4858 38577 25656 25073 23153 21936 1217 1920 13419 326 13093 2333 10760
is_linear=0
shrinkage=0.1


Tree=31
num_leaves=17
num_cat=0
split_feature=2 5 5 0 1 8 0 8 0 0 5 0 0 9 5 1
split_gain=4.77325 2.32887 3.34894 3.84478 4.81995 2.74154 2.48405 2.24439 2.20866 2.62179 2.15232 2.07133 3.91205 2.33178 1.88489 6.05511
threshold=0.44890404699613057 -1.0362132258278096 -0.67419744821514838 0.25283456450781755 -0.36108118763355773 1.0000000180025095e-35 -2.3540199278474483 1.0000000180025095e-35 -1.8519154784401299 -2.1027744373818922 -0.67386639790285752 1.9078337055488761 1.8446143274351503 1.0000000180025095e-35 0.46320191862047683 0.40275584964059236
decision_type=2 2 2 2 2 2 2 2 2 2 2 2 2 2 2 2
left_child=1 7 3 -3 5 -5 -4 -1 9 -8 -10 12 14 -14 15 -2
right_child=11 2 6 4 -6 -7 8 -9 10 -11 -12 -13 13 -15 -16 -17
leaf_value=-0.0073706204845845856 -0.0016330400702226423 0.0065094895194786236 0.0039226885118262269 -0.0083494953265257511 0.0033030356675196591 0.0024712252590330507 0.00079038157614033872 0.0022923411042225349 -0.011602621176546313 -0.017688591479225489 0.00028333383831917832 0.0057928682676279602 -0.00884470564438339 -0.035299270592687101 -0.0029883594678807614 0.0038526569480260859
leaf_weight=689 12159 2005 1837 691 2727 354 156 369 153 151 29445 406 104 49 4924 2411
leaf_count=689 12159 2005 1837 691 2727 354 156 369 153 151 29445 406 104 49 4924 2411
internal_value=-2.44042e-05 0.000626131 0.000756615 0.00297118 0.00109018 -0.00468392 0.000353551 -0.00400045 0.000134284 -0.00830205 0.000221832 -0.00127588 -0.001422 -0.0173427 -0.00129691 -0.000725244
internal_weight=58630 38577 37519 5777 3772 1045 31742 1058 29905 307 29598 20053 19647 153 19494 14570
internal_count=58630 38577 37519 5777 3772 1045 31742 1058 29905 307 29598 20053 19647 153 19494 14570
is_linear=0
shrinkage=0.1


Tree=32
num_leaves=17
num_cat=0
split_feature=2 5 5 5 8 1 1 3 5 1 1 7 5 1 5 5
split_gain=3.86642 2.15924 3.52082 3.79987 3.29519 3.0003 6.31531 4.3074 1.55032 3.89414 3.99561 2.78448 2.96132 2.68806 2.62935 3.46754
threshold=0.44890404699613057 2.0488605738695864 1.3355575009870211 1.298313114742039 1.0000000180025095e-35 0.34460709566944608 0.30597844518059342 -0.27587573362496581 0.46320191862047683 0.40275584964059236 0.34460709566944608 1.0000000180025095e-35 -1.0362132258278096 0.24712004222754383 1.0000000180025095e-35 0.067133324995769988
decision_type=2 2 2 2 2 2 2 2 2 2 2 2 2 2 2 2
left_child=1 2 3 5 -5 6 -1 -7 9 10 11 13 -13 -2 -11 -16
right_child=8 -3 -4 4 -6 7 -8 -9 -10 14 -12 12 -14 -15 15 -17
leaf_value=0.00084122235345033885 -0.00046916155771721546 -0.0046783505391181689 0.0053563291993718879 -0.024539289485788311 0.0051948884170013596 0.0011174976874214135 0.009972139958510963 -0.0029693589579881953 -0.0026895320282126108 0.0096857933592922121 -0.011454890375028637 0.0091918586190755467 -0.0037880089785227986 0.0069023590320085584 -0.012752026617751872 0.0025569938245965486
leaf_weight=25004 7596 770 1538 111 56 5224 781 5093 4924 467 381 184 3868 529 160 1944
leaf_count=25004 7596 770 1538 111 56 5224 781 5093 4924 467 381 184 3868 529 160 1944
internal_value=-2.19787e-05 0.000563509 0.000670289 0.000471552 -0.0145716 0.000541199 0.00111785 -0.000899982 -0.00114832 -0.00064667 -0.00137261 -0.00105701 -0.00319826 1.08731e-05 0.00289897 0.00139196
internal_weight=58630 38577 37807 36269 167 36102 25785 10317 20053 15129 12558 12177 4052 8125 2571 2104
internal_count=58630 38577 37807 36269 167 36102 25785 10317 20053 15129 12558 12177 4052 8125 2571 2104
is_linear=0
shrinkage=0.1


Tree=33
num_leaves=17
num_cat=0
split_feature=2 5 5 7 5 3 8 5 1 1 9 9 5 9 3 1
split_gain=3.1318 1.91166 2.66181 1.87419 2.46597 2.98127 1.81807 1.25577 3.15425 3.23674 3.95489 3.10194 6.75823 2.49054 2.68473 6.66445
threshold=0.44890404699613057 -1.0362132258278096 -0.67419744821514838 1.0000000180025095e-35 2.4271566701733485 0.19180434661505139 1.0000000180025095e-35 0.46320191862047683 0.40275584964059236 0.34460709566944608 1.0000000180025095e-35 1.0000000180025095e-35 -1.0362132258278096 1.0000000180025095e-35 -0.39567088171560677 0.74319431756818044
decision_type=2 2 2 2 2 2 2 2 2 2 2 2 2 2 2 2
left_child=1 6 -3 -4 5 -5 -1 8 9 11 -11 -2 -13 -10 -15 -16
right_child=7 2 3 4 -6 -7 -8 -9 13 10 -12 12 -14 14 15 -17
leaf_value=-0.0067178136930471271 -0.0020788208461416289 0.002599724251339195 0.00080692785587766305 -0.0018413979615848248 -0.016212149196064226 0.0017772436443216123 0.001979103866179885 -0.0024205864717349646 0.0048309838804183811 -0.0029724509067279971 -0.02445692654613749 -0.017516960357352271 0.002193388033792949 0.0033670306487441656 0.0012735176644103198 -0.026253483046696564
leaf_weight=689 8123 5777 21225 7052 103 3362 369 4924 1703 251 130 182 3872 470 267 131
leaf_count=689 8123 5777 21225 7052 103 3362 369 4924 1703 251 130 182 3872 470 267 131
internal_value=-1.97833e-05 0.000507155 0.000625375 0.000266032 -0.000825565 -0.000673152 -0.00368457 -0.00103349 -0.000582002 -0.00123535 -0.0103098 -0.00095129 0.0013079 0.00260907 -0.00175017 -0.00779255
internal_weight=58630 38577 37519 31742 10517 10414 1058 20053 15129 12558 381 12177 4054 2571 868 398
internal_count=58630 38577 37519 31742 10517 10414 1058 20053 15129 12558 381 12177 4054 2571 868 398
is_linear=0
shrinkage=0.1


Tree=34
num_leaves=17
num_cat=0
split_feature=2 1 1 8 1 1 1 1 1 1 1 8 7 1 8 3
split_gain=2.5369 1.45603 1.95656 1.58152 2.02849 1.63755 2.15283 1.40981 1.7161 4.88891 1.27293 1.18349 1.16179 1.21266 2.9165 1.65026
threshold=0.44890404699613057 -1.4897000745637892 -1.4803593759920914 1.0000000180025095e-35 -1.4931451270689766 -1.5069044802133913 -1.4942404050155853 -1.4696451355153095 -0.49128167222639024 -0.43482252286282974 -0.59401787126307559 1.0000000180025095e-35 1.0000000180025095e-35 -1.5069044802133913 1.0000000180025095e-35 0.31431590190609199
decision_type=2 2 2 2 2 2 2 2 2 2 2 2 2 2 2 2
left_child=1 3 -3 4 5 -1 -7 11 10 -10 -9 -4 13 14 -2 -15
right_child=12 2 7 -5 -6 6 -8 8 9 -11 -12 -13 -14 15 -16 -17
leaf_value=-0.0063084271452510639 -0.015987546396519888 0.007003922564414209 -0.0059780642823142657 0.0020261520264916698 -0.019120947108392062 0.014189093155012553 -0.0061448260216229941 0.0013257546200576373 -0.0056138994423938285 0.0005386109018355069 0.0047134435164667334 0.0015936882214834455 -0.0020127215626890064 -0.00090959111436679767 0.0029239569440033652 0.0016513636282993759
leaf_weight=583 161 467 602 452 94 104 104 5602 1355 27517 1383 314 6634 9695 165 3398
leaf_count=583 161 467 602 452 94 104 104 5602 1355 27517 1383 314 6634 9695 165 3398
internal_value=-1.78245e-05 0.000456433 0.000572849 -0.00278573 -0.00524343 -0.00359098 0.0040241 0.000491146 0.000590119 0.000249834 0.00199661 -0.00338249 -0.000930184 -0.000394978 -0.00641816 -0.000244929
internal_weight=58630 38577 37240 1337 885 791 208 36773 35857 28872 6985 916 20053 13419 326 13093
internal_count=58630 38577 37240 1337 885 791 208 36773 35857 28872 6985 916 20053 13419 326 13093
is_linear=0
shrinkage=0.1


Tree=35
num_leaves=17
num_cat=0
split_feature=0 1 1 0 0 0 9 9 0 8 1 1 0 0 0 9
split_gain=2.85967 7.13595 8.15699 6.17109 5.56703 5.35018 7.67777 5.05558 3.36695 4.07894 3.12851 2.88447 2.45457 2.13588 4.65298 4.99708
threshold=-0.56124377254767144 1.0000000180025095e-35 0.178921518038797 -1.0192406802954814 -0.37265933688369612 -1.3124033671190511 1.0000000180025095e-35 1.0000000180025095e-35 -2.1027744373818922 1.0000000180025095e-35 1.8885144124856208 0.5101720241141442 -1.0372358701254076 1.9078337055488761 1.8446143274351503 1.0000000180025095e-35
decision_type=2 2 2 2 2 2 2 2 2 2 2 2 2 2 2 2
left_child=1 -1 8 5 7 11 -7 -2 -3 12 -5 -4 -10 14 -6 -16
right_child=4 2 3 10 13 6 -8 -9 9 -11 -12 -13 -14 -15 15 -17
leaf_value=0.0053980232891029144 -0.0087870591256330663 0.004012739778416769 -0.0053675133465062932 0.0067786445125611943 -7.4120586564664463e-05 -0.00087394392841432769 -0.016684484341117137 0.0016608269174303346 -0.020485016796223911 -0.00070504709181226383 -0.0025553038809159115 0.0034747015537368408 -0.0089441282828358077 0.0041925040298072648 -0.0026120051384727716 -0.024279500043332444
leaf_weight=3274 1404 223 462 2078 44385 912 463 691 307 364 434 1829 462 1146 310 162
leaf_count=3274 1404 223 462 2078 44385 912 463 691 307 364 434 1829 462 1146 310 162
internal_value=3.04374e-05 0.00150027 -0.000193605 0.00134796 -0.000299845 -0.0012682 -0.00619906 -0.00534105 -0.00721659 -0.00942713 0.0051659 0.00169131 -0.0135546 -7.0247e-05 -0.000179167 -0.0100541
internal_weight=58906 10808 7534 6178 48098 3666 1375 2095 1356 1133 2512 2291 769 46003 44857 472
internal_count=58906 10808 7534 6178 48098 3666 1375 2095 1356 1133 2512 2291 769 46003 44857 472
is_linear=0
shrinkage=0.1


Tree=36
num_leaves=17
num_cat=0
split_feature=0 1 1 0 5 8 0 5 1 0 8 1 0 1 1 8
split_gain=2.31621 5.78037 6.60757 4.99875 9.6403 9.73426 4.50936 3.29411 5.76171 9.98089 5.35401 4.33248 5.25766 2.97308 4.96384 2.89261
threshold=-0.56124377254767144 1.0000000180025095e-35 0.178921518038797 -1.0192406802954814 0.47431172187850229 1.0000000180025095e-35 -0.37265933688369612 0.39832341408508742 0.10559417688071937 1.4003607627555419 1.0000000180025095e-35 0.2360865303085391 0.9857842295138306 -1.1184192032970572 1.2368946243464314 1.0000000180025095e-35
decision_type=2 2 2 2 2 2 2 2 2 2 2 2 2 2 2 2
left_child=1 -1 -3 4 5 -4 -2 8 9 -8 -11 -10 -13 -9 15 -15
right_child=6 2 3 -5 -6 -7 7 13 11 10 -12 12 -14 14 -16 -17
leaf_value=0.0048582440982531576 -0.0048069835950568379 -0.0064952095031641718 -0.013708321554748227 0.0046493252942598718 0.0028427531221258901 0.0040775234650138837 0.00035799034152616876 0.002267696763905442 0.0061585445325502376 -0.0081435088196117975 0.00022904071269369097 -0.0018284793421887166 0.0033546505068715962 -0.0073301159784730646 -0.00036081606529879574 -0.0012640634338126424
leaf_weight=3274 2095 1356 917 2512 2286 463 22034 1612 2332 2339 1134 3274 4865 2332 4895 1186
leaf_count=3274 2095 1356 917 2512 2286 463 22034 1612 2332 2339 1134 3274 4865 2332 4895 1186
internal_value=2.73764e-05 0.00135019 -0.000174327 0.00121312 -0.00114146 -0.00774112 -0.000269869 -6.32296e-05 0.000383451 -0.00042736 -0.00540977 0.00235855 0.00126967 -0.00166629 -0.00242012 -0.00528528
internal_weight=58906 10808 7534 6178 3666 1380 48098 46003 35978 25507 3473 10471 8139 10025 8413 3518
internal_count=58906 10808 7534 6178 3666 1380 48098 46003 35978 25507 3473 10471 8139 10025 8413 3518
is_linear=0
shrinkage=0.1


Tree=37
num_leaves=17
num_cat=0
split_feature=0 0 9 1 1 9 0 0 7 2 2 2 1 0 0 0
split_gain=1.87626 3.91947 3.98324 3.20091 4.59083 5.50715 3.48285 7.85469 2.05091 2.09337 1.92924 1.60305 1.2275 1.97956 1.39747 1.19607
threshold=-1.3124033671190511 -1.2593626524652113 1.0000000180025095e-35 1.0000000180025095e-35 0.5101720241141442 1.0000000180025095e-35 -3.0857241023879056 -2.1027744373818922 1.0000000180025095e-35 -0.0012136554066951072 0.38432003485764848 -0.082412889618088972 0.24712004222754383 1.4003607627555419 0.9765074729427945 -1.234581686995361
decision_type=2 2 2 2 2 2 2 2 2 2 2 2 2 2 2 2
left_child=3 2 10 -1 5 -5 -7 -8 9 12 -2 -10 13 -3 -14 -13
right_child=1 8 -4 4 -6 6 7 -9 11 -11 -12 15 14 -15 -16 -17
leaf_value=0.0051544995500876819 -0.011911032905178335 0.0010512743790867746 -0.031638141567368043 -0.00013130413002399003 0.0029730351984771368 -0.034642552685534039 0.0060605563705976376 -0.025575894900068119 -0.0040629082148139336 -0.00035831890969892285 0.011184361227367554 0.011672872098456922 0.0011326842134071985 -0.003075136215760688 0.0043126344645003176 -0.00072834323365690828
leaf_weight=1868 105 9326 77 752 1829 72 152 162 1520 19207 55 78 3648 1328 2225 16502
leaf_count=1868 105 9326 77 752 1829 72 152 162 1520 19207 55 78 3648 1328 2225 16502
internal_value=2.46352e-05 -0.000144129 -0.0129721 0.00191195 -0.000129625 -0.00511612 -0.0148235 -0.0102651 -8.76189e-05 0.000351659 -0.00396818 -0.000954871 0.00117677 0.000536877 0.00233752 -0.000669895
internal_weight=58906 54071 237 4835 2967 1138 386 314 53834 35734 160 18100 16527 10654 5873 16580
internal_count=58906 54071 237 4835 2967 1138 386 314 53834 35734 160 18100 16527 10654 5873 16580
is_linear=0
shrinkage=0.1


Tree=38
num_leaves=17
num_cat=0
split_feature=3 1 5 1 0 0 9 9 1 1 0 9 5 5 0 8
split_gain=1.97856 3.08651 10.205 4.92219 5.56214 4.79148 5.30975 3.46949 2.2039 4.27086 5.96061 10.9366 6.93176 3.88844 5.95163 8.56736
threshold=-0.58737609881043096 0.1446445227977172 -0.49243243508348594 0.69519262378974411 1.1644476894004476 1.7851743686651795 1.0000000180025095e-35 1.0000000180025095e-35 0.34460709566944608 0.27836347615495333 1.1139409036248078 1.0000000180025095e-35 -0.52742690531715841 0.93267540149046246 1.5725820305789397 1.0000000180025095e-35
decision_type=2 2 2 2 2 2 2 2 2 2 2 2 2 2 2 2
left_child=1 2 -1 -3 -5 6 -6 -7 9 10 -2 -12 -13 14 15 -10
right_child=8 3 -4 4 5 7 -8 -9 13 -11 11 12 -14 -15 -16 -17
leaf_value=0.0032084756151053093 0.00041058181464927244 0.0055558385734804962 -0.0070388221903539931 -0.0019028846762638102 0.0033526954674395169 0.00053263096446135754 0.017535590870876718 -0.026403728032435209 -0.0069664854122909892 0.0051634430721495322 -5.2738490974773115e-05 0.0049932989797411842 -0.013915843290843203 0.00097885138888316936 0.0020980668298522446 0.0010307007650138947
leaf_weight=2332 29044 2964 1666 3282 776 155 400 69 3996 1614 2883 232 1177 4372 1929 2015
leaf_count=2332 29044 2964 1666 3282 776 155 400 69 3996 1614 2883 232 1177 4372 1929 2015
internal_value=2.21548e-05 0.00118976 -0.00106172 0.00236705 0.000348216 0.00562521 0.00817846 -0.00777538 -0.00026551 0.000139791 -0.000103451 -0.00358185 -0.010802 -0.00141604 -0.00273475 -0.00428569
internal_weight=58906 11644 3998 7646 4682 1400 1176 224 47262 34950 33336 4292 1409 12312 7940 6011
internal_count=58906 11644 3998 7646 4682 1400 1176 224 47262 34950 33336 4292 1409 12312 7940 6011
is_linear=0
shrinkage=0.1


Tree=39
num_leaves=17
num_cat=0
split_feature=3 1 5 1 5 5 1 1 1 1 5 5 5 9 2 3
split_gain=1.60262 2.50009 8.26618 4.04399 2.71247 3.13972 2.91034 2.23614 1.78516 3.53716 3.14965 5.07007 3.99881 6.38 5.30483 3.89377
threshold=-0.58737609881043096 0.1446445227977172 -0.49243243508348594 0.64653903848068117 0.23424139207882436 0.49248515791099928 1.1468737120916348 1.0667395654496492 0.34460709566944608 0.29763836598411597 0.93267540149046246 0.96151110980325849 1.0000000180025095e-35 1.0000000180025095e-35 0.44890404699613057 0.18818903691811847
decision_type=2 2 2 2 2 2 2 2 2 2 2 2 2 2 2 2
left_child=1 2 -1 -3 -5 7 -7 -6 9 -2 12 -12 -10 -14 -15 -13
right_child=8 3 -4 4 5 6 -8 -9 10 -11 11 15 13 14 -16 -17
leaf_value=0.0028876473747779848 -6.1835560870353531e-05 0.0056309917193704739 -0.0063349992626860301 -0.004585591813007826 0.0020596549636152078 -0.0046883911418206317 0.0030209930894956674 0.0086713496630810277 0.0029448189195860858 0.0055191288130338346 0.015196817056369577 0.004452426879737223 -0.0012337510693371696 -0.0042992659027751975 -0.014602224049595533 -0.0020765403621475428
leaf_weight=2332 33775 2305 1666 843 1785 1135 861 717 1167 1175 234 1361 4531 1490 752 2777
leaf_count=2332 33775 2305 1666 843 1785 1135 861 717 1167 1175 234 1361 4531 1490 752 2777
internal_value=1.99376e-05 0.00107078 -0.000955555 0.00213035 0.00061945 0.00159511 -0.00136279 0.00395482 -0.00023896 0.00012581 -0.00127443 0.000880969 -0.00246127 -0.00339282 -0.0077558 7.08964e-05
internal_weight=58906 11644 3998 7646 5341 4498 1996 2502 47262 34950 12312 4372 7940 6773 2242 4138
internal_count=58906 11644 3998 7646 5341 4498 1996 2502 47262 34950 12312 4372 7940 6773 2242 4138
is_linear=0
shrinkage=0.1


Tree=40
num_leaves=17
num_cat=0
split_feature=7 5 8 2 0 0 5 0 0 2 3 5 0 3 3 2
split_gain=1.60469 1.59264 2.95749 1.93927 1.47266 4.1613 1.63861 1.48035 1.45763 3.15106 1.41767 1.4045 1.39596 1.28223 1.6027 1.13958
threshold=1.0000000180025095e-35 -1.0362132258278096 1.0000000180025095e-35 0.44890404699613057 -0.56124377254767144 -0.37265933688369612 0.39832341408508742 1.6129960487888695 -0.15551459627490535 0.44890404699613057 0.17810975324085387 0.39567133324995796 -0.38575846074557602 0.0091737590057219681 0.1960343832236682 -0.0012136554066951072
decision_type=2 2 2 2 2 2 2 2 2 2 2 2 2 2 2 2
left_child=1 2 3 -1 -2 12 8 10 9 -7 -8 -10 13 -6 -15 -3
right_child=4 15 -4 -5 5 6 7 -9 11 -11 -12 -13 -14 14 -16 -17
leaf_value=-0.0042027477031130632 0.0010994329649942657 0.0010871510640453673 0.0020675326745336407 -0.016593413597689628 -0.010302978868328823 0.010214674839554161 -0.0066936448599007039 0.0069518680891423939 -0.00060353435665255945 -0.0055190900590526429 -0.0019276753610247316 0.008976073478431228 -0.016547310058161738 0.011040030921825844 -0.0063196071427834401 -1.0921021411038704e-05
leaf_weight=373 3648 17588 517 191 317 366 845 151 11336 195 2388 155 167 79 162 20428
leaf_count=373 3648 17588 517 191 317 366 845 151 11336 195 2388 155 167 79 162 20428
internal_value=1.79468e-05 0.000389463 -0.00339519 -0.00840224 -0.000715303 -0.00112496 -0.000777145 -0.00272149 -0.000231165 0.00474543 -0.00317363 -0.000474195 -0.00852844 -0.0061247 -0.00062535 0.000497097
internal_weight=58906 39097 1081 564 19809 16161 15436 3384 12052 561 3233 11491 725 558 241 38016
internal_count=58906 39097 1081 564 19809 16161 15436 3384 12052 561 3233 11491 725 558 241 38016
is_linear=0
shrinkage=0.1


Tree=41
num_leaves=17
num_cat=0
split_feature=0 1 1 0 5 8 0 0 8 1 2 7 1 1 8 5
split_gain=1.33765 4.02719 4.32413 3.56075 5.65985 6.6862 2.76058 2.31898 3.00035 2.20874 1.95458 3.04943 2.09549 2.0009 2.01439 1.89229
threshold=-0.56124377254767144 1.0000000180025095e-35 0.178921518038797 -1.0192406802954814 0.47431172187850229 1.0000000180025095e-35 -0.37265933688369612 -2.1027744373818922 1.0000000180025095e-35 1.8885144124856208 0.44890404699613057 1.0000000180025095e-35 0.20374614966634552 0.11285040136938507 1.0000000180025095e-35 0.54878087657218277
decision_type=2 2 2 2 2 2 2 2 2 2 2 2 2 2 2 2
left_child=1 -1 7 4 5 -4 10 -3 -9 -5 11 -2 13 14 -12 -8
right_child=6 2 3 9 -6 -7 15 8 -10 -11 12 -13 -14 -15 -16 -17
leaf_value=0.0039495387485708293 0.0018612365130116798 0.0039545759019396437 -0.011118265852334388 0.0051265717547476488 0.0019368715700383886 0.0036221702486664816 0.00025041833570910881 -0.010738937377573053 0.00028036418787917317 -0.0027160586198347117 -0.000386639627514036 -0.0079702556893927485 -0.012848388017789966 0.011617079845400502 -0.020632722576891725 -0.0014261492911913007
leaf_weight=3274 902 223 917 2078 2286 463 37813 769 364 434 159 485 397 81 71 8190
leaf_count=3274 902 223 917 2078 2286 463 37813 769 364 434 159 485 397 81 71 8190
internal_value=1.61446e-05 0.00102141 -0.000251079 0.000871315 -0.00111593 -0.00617277 -0.000209745 -0.00536443 -0.00719902 0.00377146 -0.0037597 -0.00157694 -0.00803443 -0.00188576 -0.00664596 -4.80642e-05
internal_weight=58906 10808 7534 6178 3666 1380 48098 1356 1133 2512 2095 1387 708 311 230 46003
internal_count=58906 10808 7534 6178 3666 1380 48098 1356 1133 2512 2095 1387 708 311 230 46003
is_linear=0
shrinkage=0.1


Tree=42
num_leaves=17
num_cat=0
split_feature=5 1 0 1 1 9 5 2 5 1 1 9 0 0 1 3
split_gain=1.51495 1.4634 1.75788 4.41601 4.03266 3.72845 7.8482 6.2579 3.42403 6.84538 2.66699 2.53964 6.70973 2.53503 2.41609 2.22001
threshold=2.0488605738695864 -1.4897000745637892 1.0000000180025095e-35 1.0000000180025095e-35 -0.38781682799980449 1.0000000180025095e-35 -0.94521607776494454 0.44890404699613057 -0.49243243508348594 0.02751562580056667 0.11285040136938507 1.0000000180025095e-35 0.62523621370898608 0.24385844356639833 0.1244155406600253 0.047356249352581876
decision_type=2 2 2 2 2 2 2 2 2 2 2 2 2 2 2 2
left_child=1 -1 3 5 11 7 -7 -3 13 -10 -5 15 -13 -6 -12 -4
right_child=-2 2 4 10 8 6 -8 -9 9 -11 14 12 -14 -15 -16 -17
leaf_value=-0.0025543053036046538 -0.0036096630640972448 0.0026212983956425935 -0.00031013967232155571 -0.004806341913356835 -0.0038313267592950933 -0.0071363576218844834 0.0056754260399474793 -0.002790394570132154 -0.004981782239681801 0.00026357932870768364 0.010033779751471947 0.0013352198830332306 -0.012374749817779359 0.0024615375373945158 -0.00034704501346120484 -0.0080611518238586106
leaf_weight=2054 1143 6359 2483 1373 705 539 4226 3218 3022 14076 229 619 843 6946 10413 434
leaf_count=2054 1143 6359 2483 1373 705 539 4226 3218 3022 14076 229 619 843 6946 10413 434
internal_value=-4.89114e-06 6.67228e-05 0.00016376 0.000755476 -0.000371662 0.00194021 0.004226 0.000802867 0.000123275 -0.000663541 -0.000658708 -0.00316887 -0.00657037 0.0018816 -0.000123521 -0.00146374
internal_weight=58682 57539 55485 26357 29128 14342 4765 9577 24749 17098 12015 4379 1462 7651 10642 2917
internal_count=58682 57539 55485 26357 29128 14342 4765 9577 24749 17098 12015 4379 1462 7651 10642 2917
is_linear=0
shrinkage=0.1


Tree=43
num_leaves=17
num_cat=0
split_feature=3 0 0 3 7 8 2 0 5 1 0 0 0 8 7 1
split_gain=1.47011 3.41837 4.96771 2.78302 2.70639 5.20173 4.40636 2.2541 2.21583 2.14638 2.06914 4.40166 3.20395 3.96571 4.70211 3.30174
threshold=-0.59233310626047841 1.1644476894004476 1.7269799003607642 -0.61480510973741664 1.0000000180025095e-35 1.0000000180025095e-35 0.44890404699613057 1.3868751073698691 -0.24286218743333005 0.24712004222754383 1.3673337914447703 1.3459886617419698 1.7801494588558684 1.0000000180025095e-35 1.0000000180025095e-35 0.10559417688071937
decision_type=2 2 2 2 2 2 2 2 2 2 2 2 2 2 2 2
left_child=1 3 4 8 5 7 -7 -3 -1 -10 11 -2 13 14 15 -12
right_child=10 2 -4 -5 -6 6 -8 -9 9 -11 12 -13 -14 -15 -16 -17
leaf_value=0.0019118757582376562 -3.0200014485883856e-05 0.0049763438624288135 -0.0048323024683021168 0.0059443585745446604 0.0010418234302430047 -0.0027787538615798636 0.012119652525166093 0.016414757488001995 -0.0064157931517297949 -0.00089234786434855902 -0.012318373481441679 0.014149696497479658 0.0010328538818199279 0.00067477752584727544 -0.0014632964240593148 -0.0033085457858741496
leaf_weight=2328 39251 236 549 703 861 568 305 640 845 4200 1058 220 2767 1766 1724 661
leaf_count=2328 39251 236 549 703 861 568 305 640 845 4200 1058 220 2767 1766 1724 661
internal_value=-4.40988e-06 0.00102416 0.00381307 -6.677e-05 0.00563181 0.00789101 0.00242724 0.0133346 -0.000640042 -0.00181767 -0.000247972 4.88808e-05 -0.00171701 -0.00317774 -0.00515379 -0.0088545
internal_weight=58682 11235 3159 8076 2610 1749 873 876 7373 5045 47447 39471 7976 5209 3443 1719
internal_count=58682 11235 3159 8076 2610 1749 873 876 7373 5045 47447 39471 7976 5209 3443 1719
is_linear=0
shrinkage=0.1


Tree=44
num_leaves=17
num_cat=0
split_feature=5 5 5 9 5 5 5 9 0 5 5 2 0 0 0 5
split_gain=1.20527 1.30635 4.06903 3.6697 2.28043 3.31853 2.81676 3.91616 2.80621 1.73696 4.48059 1.69836 1.45893 1.40007 1.83946 1.16414
threshold=2.0488605738695864 0.92148344871049825 0.96151110980325849 1.0000000180025095e-35 0.46320191862047683 0.41453261826465909 0.47431172187850229 1.0000000180025095e-35 -0.44829067170589215 0.39832341408508742 0.39567133324995796 0.32029031331396374 1.2627984882322636 -0.20365916509190776 -0.15551459627490535 0.65571871022798356
decision_type=2 2 2 2 2 2 2 2 2 2 2 2 2 2 2 2
left_child=1 4 3 -3 5 9 7 11 15 10 -1 -6 -10 -7 -15 -8
right_child=-2 2 -4 -5 6 13 8 -9 12 -11 -12 -13 -14 14 -16 -17
leaf_value=1.6103196268411057e-05 -0.0032192569533947071 0.0034246820170394654 0.00051779068856458779 0.018729529999517294 -0.011167828439615834 0.012792679091211843 -0.00095963664475687261 -0.030492997943467538 -0.0019062663773037683 -0.0042308619641257357 0.0099059120984722592 0.010438619833828494 -0.0068793145706940347 -0.0033588424899574005 0.0074324198770502371 0.0044667274310060357
leaf_weight=42085 1143 462 5504 237 100 231 679 80 4367 936 463 57 682 237 473 946
leaf_count=42085 1143 462 5504 237 100 231 679 80 4367 936 463 57 682 237 473 946
internal_value=-3.96209e-06 5.99141e-05 0.00143065 0.00861682 -0.000105714 0.000157163 -0.00179552 -0.0125057 -0.00141491 3.00075e-05 0.000123758 -0.00332015 -0.00257821 0.00603201 0.0038301 0.00219936
internal_weight=58682 57539 6203 699 51336 44425 6911 237 6674 43484 42548 157 5049 941 710 1625
internal_count=58682 57539 6203 699 51336 44425 6911 237 6674 43484 42548 157 5049 941 710 1625
is_linear=0
shrinkage=0.1


Tree=45
num_leaves=17
num_cat=0
split_feature=1 8 5 0 1 1 5 1 5 1 1 1 1 0 0 5
split_gain=1.099 1.47384 2.52435 1.29205 3.02144 2.91456 2.81716 4.77462 4.202 2.72393 2.21463 4.30001 2.66996 2.18622 2.85658 2.14714
threshold=-1.4897000745637892 1.0000000180025095e-35 -0.99657056398712085 1.0000000180025095e-35 1.0000000180025095e-35 -0.38781682799980449 -0.49243243508348594 0.02751562580056667 1.0000000180025095e-35 -0.59401787126307559 0.2340978054113142 0.27053936552217189 0.48060709225231479 -2.1027744373818922 -0.22539082631850091 -0.76020799768510006
decision_type=2 2 2 2 2 2 2 2 2 2 2 2 2 2 2 2
left_child=1 2 -1 4 9 15 -7 -8 -9 -2 13 -12 -13 -6 -15 -5
right_child=3 -3 -4 5 10 6 7 8 -10 -11 11 12 -14 14 -16 -17
leaf_value=0.0079222715902468287 0.0006234013622120377 0.0015695366855944647 -0.005654018903258019 0.0023671707029019984 0.0038419833488759062 0.0016338532370041528 -0.0042815712659010369 0.0039832851645007069 -0.00066208572041095331 0.0035471133410834212 0.0077966668094775794 -0.0036464265193189649 0.00068449652381776991 -0.0051501225500700651 0.0013916272719802535 -0.0037171929985036784
leaf_weight=154 10159 671 1229 688 471 7651 3022 2325 11980 4643 707 1867 5990 2527 907 3691
leaf_count=154 10159 671 1229 688 471 7651 3022 2325 11980 4643 707 1867 5990 2527 907 3691
internal_value=-3.56404e-06 -0.00227577 -0.00414151 7.88557e-05 0.000574455 -0.000381523 3.56709e-05 -0.000670029 9.295e-05 0.00154053 -0.000572367 0.000327549 -0.000344655 -0.00254594 -0.00342226 -0.00276118
internal_weight=58682 2054 1383 56628 27271 29357 24978 17327 14305 14802 12469 8564 7857 3905 3434 4379
internal_count=58682 2054 1383 56628 27271 29357 24978 17327 14305 14802 12469 8564 7857 3905 3434 4379
is_linear=0
shrinkage=0.1


Tree=46
num_leaves=17
num_cat=0
split_feature=7 2 2 2 0 0 0 0 3 0 0 8 2 0 0 8
split_gain=1.15888 1.30492 1.29096 1.54461 1.19433 0.988638 0.97909 0.935506 0.850937 3.27184 6.16786 4.4352 4.04939 2.16773 4.43511 3.33695
threshold=1.0000000180025095e-35 -0.12286549921820926 0.74020833614495241 -0.0012136554066951072 0.5130132279677041 0.31141556433602569 1.3459886617419698 0.65731833018381858 -0.59233310626047841 1.3868751073698691 1.7269799003607642 1.0000000180025095e-35 0.32029031331396374 1.3673337914447703 1.3459886617419698 1.0000000180025095e-35
decision_type=2 2 2 2 2 2 2 2 2 2 2 2 2 2 2 2
left_child=8 -2 3 4 5 -3 -4 -6 9 -1 11 -11 -13 14 -10 -15
right_child=1 2 6 -5 7 -7 -8 -9 13 10 -12 12 -14 15 -16 -17
leaf_value=0.00016654155944279046 -0.0043334952868598082 -0.00025892961523214195 -0.00228430777097813 0.001581299291271091 -0.0069797645903418963 0.0045789545484860462 0.001037794917680479 -0.0016615457791909186 0.00035914197280494678 0.014372584917581303 -0.0062560199682081628 -0.0034341078582636464 0.013222625090105466 -0.0042806369323420586 0.01788829378271865 0.00072926636036410239
leaf_weight=5882 908 4912 4822 4594 384 462 1087 2383 26148 640 364 405 228 2640 145 2678
leaf_count=5882 908 4912 4822 4594 384 462 1087 2383 26148 640 364 405 228 2640 145 2678
internal_value=-3.20313e-06 -0.000631878 -0.000451563 0.000115249 -0.000712043 0.000157061 -0.00167315 -0.00239997 0.000310923 0.00126708 0.00522103 0.00850322 0.00256683 8.34819e-05 0.000455912 -0.0017578
internal_weight=58682 19552 18644 12735 8141 5374 5909 2767 39130 7519 1637 1273 633 31611 26293 5318
internal_count=58682 19552 18644 12735 8141 5374 5909 2767 39130 7519 1637 1273 633 31611 26293 5318
is_linear=0
shrinkage=0.1


Tree=47
num_leaves=17
num_cat=0
split_feature=5 1 0 1 9 5 2 1 0 5 1 1 1 0 5 9
split_gain=0.988861 0.9437 1.19436 2.73294 2.87533 6.17633 4.87887 2.32558 2.77728 2.47566 1.873 3.41656 1.8177 1.76939 1.71562 2.56283
threshold=2.0488605738695864 -1.4897000745637892 1.0000000180025095e-35 1.0000000180025095e-35 1.0000000180025095e-35 -0.94521607776494454 0.44890404699613057 -0.38781682799980449 0.22191204260436451 -0.49243243508348594 0.2340978054113142 0.27053936552217189 0.064208239299119091 -2.1027744373818922 -0.76020799768510006 1.0000000180025095e-35
decision_type=2 2 2 2 2 2 2 2 2 2 2 2 2 2 2 2
left_child=1 -1 3 4 6 -6 -3 14 12 -10 13 -12 -9 -5 -4 -16
right_child=-2 2 7 10 5 -7 -8 8 9 -11 11 -13 -14 -15 15 -17
leaf_value=-0.0020498010855236892 -0.0029152456050624389 0.0021594967796959865 0.0021514958770021716 0.0034556107107574529 -0.0065197269596712895 0.0048457861915100191 -0.0026188588511338049 -0.0064175720832365599 0.0020188881915010003 -0.00026966044890663329 0.007015475642458433 -0.00025982818384144471 -0.0011191393807307715 -0.0030795092837566096 -0.0014206599300959821 -0.007007421294405184
leaf_weight=2054 1143 6359 688 471 539 4226 3218 943 6946 14794 707 7403 2066 3434 2458 1233
leaf_count=2054 1143 6359 688 471 539 4226 3218 943 6946 14794 707 7403 2066 3434 2458 1233
internal_value=-2.87644e-06 5.49814e-05 0.000132906 0.000620646 0.00155266 0.00355997 0.000553874 -0.000308429 6.74227e-05 0.000461539 -0.000491867 0.000374497 -0.00277991 -0.00229114 -0.00243262 -0.00328719
internal_weight=58682 57539 55485 26357 14342 4765 9577 29128 24749 21740 12015 8110 3009 3905 4379 3691
internal_count=58682 57539 55485 26357 14342 4765 9577 29128 24749 21740 12015 8110 3009 3905 4379 3691
is_linear=0
shrinkage=0.1


Tree=48
num_leaves=17
num_cat=0
split_feature=7 0 0 0 2 3 0 0 2 9 2 3 9 0 0 1
split_gain=0.898326 1.27562 1.68512 1.37996 1.00847 0.719086 2.89434 4.79236 2.46269 3.18665 2.18918 1.90502 1.43115 1.28069 1.1967 5.13807
threshold=1.0000000180025095e-35 -0.61943824085208632 -0.37265933688369612 -0.38575846074557602 -0.069012552995000781 -0.59233310626047841 1.7851743686651795 1.3868751073698691 0.44890404699613057 1.0000000180025095e-35 0.44890404699613057 -0.58985458658047585 1.0000000180025095e-35 1.6129960487888695 1.3673337914447703 -0.30913239890471261
decision_type=2 2 2 2 2 2 2 2 2 2 2 2 2 2 2 2
left_child=5 -2 3 -3 -4 6 7 -1 9 -9 -8 12 -7 -10 -13 -16
right_child=1 2 4 -5 -6 11 10 8 13 -11 -12 14 -14 -15 15 -17
leaf_value=0.00015840377421045106 0.0012084440129486258 -0.0032843782036790429 -0.0032074905592064142 -0.013426292685569064 -0.00041068891812051612 -0.0019370266422520693 -0.0039284288558970931 -0.0021955259276237068 0.017325523169877836 0.0091873348194678791 -0.029044152228943677 0.00038530800238241236 -0.024648278280750544 0.0071659998269128005 -0.0074357441647784506 0.00032734035718537597
leaf_weight=5882 3387 779 1422 162 13802 57 104 481 249 503 52 26293 54 248 1074 4133
leaf_count=5882 3387 779 1422 162 13802 57 104 481 249 503 52 26293 54 248 1074 4133
internal_value=-2.59272e-06 -0.000556101 -0.000925837 -0.00503229 -0.000671962 0.000273975 0.00115294 0.00143864 0.00652266 0.00362348 -0.0123199 6.48952e-05 -0.0130043 0.0122597 0.000111011 -0.00127401
internal_weight=58682 19552 16165 941 15224 39130 7519 7363 1481 984 156 31611 111 497 31500 5207
internal_count=58682 19552 16165 941 15224 39130 7519 7363 1481 984 156 31611 111 497 31500 5207
is_linear=0
shrinkage=0.1


Tree=49
num_leaves=17
num_cat=0
split_feature=3 3 3 3 0 0 5 5 5 9 5 9 3 5 5 0
split_gain=1.04064 1.54314 2.08063 2.0792 1.78611 2.76492 2.5179 3.18319 2.25738 3.3523 2.25572 3.30557 2.21233 1.48396 1.74205 1.30846
threshold=-0.58737609881043096 -0.21718442267982183 -0.16368143966736851 -0.14331780011036974 0.66741109774952878 -1.3124033671190511 -0.48365714958324441 1.0269045814911002 0.29519633735743395 1.0000000180025095e-35 0.043379852032771678 1.0000000180025095e-35 -0.35518177906076326 0.49248515791099928 0.41453261826465909 -1.0660109946744538
decision_type=2 2 2 2 2 2 2 2 2 2 2 2 2 2 2 2
left_child=13 4 -3 -4 5 -2 -7 -8 10 -10 12 -12 -6 14 15 -1
right_child=1 2 3 -5 8 6 7 -9 9 -11 11 -13 -14 -15 -16 -17
leaf_value=-0.0063056360508041143 0.0026285397484742596 0.0042649988698751813 -0.0064713338452218388 0.00010892595400178416 0.0023362884908421895 -0.00071548520157870563 -0.0062605918934701592 0.0058611583881732149 0.00084137799902958489 0.01854146645486968 -0.00054418025432086191 -0.01120679036580585 -0.0023690303249235501 -0.0014639289583734272 0.0063222513085092746 0.0012571515772441307
leaf_weight=235 925 1192 487 33635 2686 2124 2625 236 331 158 853 441 1591 2180 676 8438
leaf_count=235 925 1192 487 33635 2686 2124 2625 236 331 158 853 441 1591 2180 676 8438
internal_value=3.35676e-05 -0.000174138 0.000158457 1.49796e-05 -0.00115536 -0.00239229 -0.00332401 -0.00526039 5.09432e-05 0.00656442 -0.000520907 -0.00417898 0.000585902 0.000885436 0.00143329 0.00105212
internal_weight=58813 47284 35314 34122 11970 5910 4985 2861 6060 489 5571 1294 4277 11529 9349 8673
internal_count=58813 47284 35314 34122 11970 5910 4985 2861 6060 489 5571 1294 4277 11529 9349 8673
is_linear=0
shrinkage=0.1


Tree=50
num_leaves=17
num_cat=0
split_feature=3 3 0 0 0 8 5 2 7 8 0 7 3 3 3 0
split_gain=0.842909 1.34154 2.03974 2.44626 1.81667 1.76238 1.65527 1.65085 2.15147 1.43699 2.30349 1.4324 1.24992 1.68535 1.68426 1.44677
threshold=-0.58737609881043096 -0.64066763005563143 1.1644476894004476 1.7269799003607642 0.68785432056347817 1.0000000180025095e-35 -0.24286218743333005 0.44890404699613057 1.0000000180025095e-35 1.0000000180025095e-35 -0.078508847277099517 1.0000000180025095e-35 -0.21718442267982183 -0.16368143966736851 -0.14331780011036974 0.66741109774952878
decision_type=2 2 2 2 2 2 2 2 2 2 2 2 2 2 2 2
left_child=1 2 6 -4 5 -3 7 8 -1 10 -8 -9 15 -14 -15 -2
right_child=12 4 3 -5 -6 -7 9 11 -10 -11 -12 -13 13 14 -16 -17
leaf_value=0.0010197731736691089 -0.0021530510294791943 0.012975797318284604 0.0042239342368517062 -0.0033143349428582276 0.001215611667955762 0 -0.00029189962931798231 0.0011599217885588666 0.0090802628786950702 0.00090964389363576686 -0.0055270511457715691 -0.0078210586911339423 0.0038385492029770515 -0.0058243868185654246 9.8033402399853932e-05 4.5863961940144325e-05
leaf_weight=992 5910 318 2168 537 1021 156 1846 511 497 1668 1543 272 1192 487 33635 6060
leaf_count=992 5910 318 2168 537 1021 156 1846 511 497 1668 1543 272 1192 487 33635 6060
internal_value=3.02125e-05 0.000796891 0.000380472 0.00272728 0.00359137 0.00870657 -0.000485705 0.00175629 0.00371092 -0.00149304 -0.00267562 -0.00196055 -0.000156721 0.00014261 1.34786e-05 -0.00103982
internal_weight=58813 11529 10034 2705 1495 474 7329 2272 1489 5057 3389 783 47284 35314 34122 11970
internal_count=58813 11529 10034 2705 1495 474 7329 2272 1489 5057 3389 783 47284 35314 34122 11970
is_linear=0
shrinkage=0.1


Tree=51
num_leaves=17
num_cat=0
split_feature=1 8 5 1 5 5 5 5 9 5 5 5 5 3 3 8
split_gain=0.830047 1.09475 1.83398 1.15532 0.851206 5.55997 3.10403 4.02112 3.86291 6.8342 2.5122 1.93522 6.03582 1.7608 1.55084 1.45821
threshold=-1.4897000745637892 1.0000000180025095e-35 -0.99657056398712085 -1.4931451270689766 0.35708190184726096 0.31012915866628443 0.39567133324995796 0.39832341408508742 1.0000000180025095e-35 0.38354998737104384 0.30015718759272486 0.23424139207882436 0.13793395178436146 0.27772640000768206 -1.0258758190175878 1.0000000180025095e-35
decision_type=2 2 2 2 2 2 2 2 2 2 2 2 2 2 2 2
left_child=1 2 -1 -4 5 10 8 -8 -6 -10 11 12 -2 -13 -9 -12
right_child=4 -3 3 -5 6 -7 7 14 9 -11 15 13 -14 -15 -16 -17
leaf_value=0.0066918159854447131 0.00042326277713192781 0.0013104990678906806 -0.0036589815499219989 -0.01288039067300843 -0.0012225115151023893 0.0071688959392771853 0.0091621179908300595 -0.0036382067531385235 -0.00014638933951948837 -0.02403574035675636 -0.0091900372476237339 0.0044125168210659921 -0.0049194486600814564 -0.0024673814848960793 -5.4901289825063568e-05 0.00064285237429143006
leaf_weight=156 32404 700 1097 155 933 1164 457 1316 236 243 449 1874 2262 464 14676 227
leaf_count=156 32404 700 1097 155 933 1164 457 1316 236 243 449 1874 2262 464 14676 227
internal_value=2.71944e-05 -0.00192119 -0.00352793 -0.00480205 9.96325e-05 0.000362357 -0.000471729 -8.54608e-05 -0.00497097 -0.0122694 0.000152061 0.000262438 7.46212e-05 0.003047 -0.000349815 -0.00588849
internal_weight=58813 2108 1408 1252 56705 38844 17861 16449 1412 479 37680 37004 34666 2338 15992 676
internal_count=58813 2108 1408 1252 56705 38844 17861 16449 1412 479 37680 37004 34666 2338 15992 676
is_linear=0
shrinkage=0.1


Tree=52
num_leaves=17
num_cat=0
split_feature=5 9 2 2 8 2 5 5 8 1 0 0 9 0 5 0
split_gain=0.739463 1.24809 2.50661 1.33344 1.2393 0.921189 1.07203 1.73844 4.13897 1.64978 2.42449 0.960783 1.50557 0.958905 2.25714 2.22338
threshold=-1.0362132258278096 1.0000000180025095e-35 0.44890404699613057 0.44890404699613057 1.0000000180025095e-35 0.44890404699613057 1.4586971821487869 1.7221470206698009 1.0000000180025095e-35 2.5316630115028373 1.3459886617419698 -0.75244803298402252 1.0000000180025095e-35 0.55763614499227032 -0.83375634206570493 0.65731833018381858
decision_type=2 2 2 2 2 2 2 2 2 2 2 2 2 2 2 2
left_child=1 2 4 -3 -1 13 9 8 -8 11 -11 -7 -13 14 -2 -15
right_child=5 3 -4 -5 -6 6 7 -9 -10 10 -12 12 -14 15 -16 -17
leaf_value=-0.0076939801805762922 0.0046707866007561485 -0.0024166232367634115 0.0065635849791684468 -0.012848336628330721 0.00064949499949093362 0.001451318747708534 -0.0196401164259279 -0.0013267007009972124 0.0087012315800440634 -0.0022898173578585791 0.022551629486587586 -0.0013653081630498861 0.00071090993073014391 -0.0061653688650810546 0.00049499256959135215 -4.585931849939178e-05
leaf_weight=361 1367 359 370 186 351 2455 169 782 74 80 77 10513 5230 626 24346 11467
leaf_count=361 1367 359 370 186 351 2455 169 782 74 80 77 10513 5230 626 24346 11467
internal_value=2.44661e-05 -0.00207763 -0.000111618 -0.00597948 -0.0035813 8.42806e-05 -0.000476288 -0.0036234 -0.0110087 -0.000300509 0.00990184 -0.000388612 -0.000675555 0.000371642 0.000717024 -0.000362719
internal_weight=58813 1627 1082 545 712 57186 19380 1025 243 18355 157 18198 15743 37806 25713 12093
internal_count=58813 1627 1082 545 712 57186 19380 1025 243 18355 157 18198 15743 37806 25713 12093
is_linear=0
shrinkage=0.1


Tree=53
num_leaves=17
num_cat=0
split_feature=3 3 0 0 9 9 0 8 5 8 0 5 3 3 3 8
split_gain=0.74104 1.08947 1.57293 1.85061 3.43347 2.72431 1.41402 1.42298 1.14965 1.08296 1.55538 1.03241 0.955566 1.31758 1.38356 1.12332
threshold=-0.58737609881043096 -0.64066763005563143 1.1644476894004476 1.7269799003607642 1.0000000180025095e-35 1.0000000180025095e-35 0.68785432056347817 1.0000000180025095e-35 -0.24286218743333005 1.0000000180025095e-35 -0.078508847277099517 -0.18010853545794056 -0.21718442267982183 -0.16368143966736851 -0.14331780011036974 1.0000000180025095e-35
decision_type=2 2 2 2 2 2 2 2 2 2 2 2 2 2 2 2
left_child=1 2 8 4 -4 -5 7 -3 -1 10 -10 -6 15 -14 -15 -2
right_child=12 6 3 5 11 -7 -8 -9 9 -11 -12 -13 13 14 -16 -17
leaf_value=0.001473436164323009 -0.0016028108444807569 0.011608246470225604 0.00092452405704835337 0.0020613182303515463 0.0017015055507599661 -0.013198854649381336 0.001163137913777792 -5.0268330648401847e-05 -0.00030237698444501464 0.00085128376837133074 -0.0046042402052096825 0.011248214504914667 0.0033763561826520225 -0.0052968587690464374 7.0926027908132068e-05 0.00045989487889664489
leaf_weight=2272 8039 318 1449 365 141 172 1021 156 1846 1668 1543 578 1192 487 33635 3931
leaf_count=2272 8039 318 1449 365 141 172 1021 156 1846 1668 1543 578 1192 487 33635 3931
internal_value=2.20171e-05 0.000740876 0.00036561 0.00242645 0.0037282 -0.00282837 0.00325918 0.00777206 -0.000395019 -0.00123452 -0.00226116 0.00937696 -0.000153257 0.000108466 -5.70164e-06 -0.000925399
internal_weight=58813 11529 10034 2705 2168 537 1495 474 7329 5057 3389 719 47284 35314 34122 11970
internal_count=58813 11529 10034 2705 2168 537 1495 474 7329 5057 3389 719 47284 35314 34122 11970
is_linear=0
shrinkage=0.1


Tree=54
num_leaves=17
num_cat=0
split_feature=1 8 1 1 2 0 8 1 1 1 7 1 1 8 7 0
split_gain=0.728723 0.899782 1.29588 1.29711 0.664619 1.01549 2.80747 3.05838 1.69518 1.63941 1.60417 1.32008 1.15645 2.33044 6.66991 1.90815
threshold=-1.4897000745637892 1.0000000180025095e-35 -1.4931451270689766 -1.5069044802133913 0.94841434330542274 0.9857842295138306 1.0000000180025095e-35 -0.44446529423355724 0.40275584964059236 2.8380102072928568 1.0000000180025095e-35 0.82281345828201558 -0.0070464357690979704 1.0000000180025095e-35 1.0000000180025095e-35 -0.56124377254767144
decision_type=2 2 2 2 2 2 2 2 2 2 2 2 2 2 2 2
left_child=1 2 3 -1 -2 12 8 -8 10 -10 -7 -9 13 14 -6 -15
right_child=4 -3 -4 -5 5 6 7 11 9 -11 -12 -13 -14 15 -16 -17
leaf_value=-0.0040313630984355441 0.00028792514573465109 0.0011240338232448557 -0.011884173716766448 0.0034398418509022522 0.005557752528890474 -0.006810685783748837 -0.011871758198352423 0.0087753653050309868 0.0032658489548903825 -0.016707768043435947 0.00015854531564625074 0.0001463061672371666 -0.0020285340793973878 0.0047635934427231333 -0.0027086972240073851 -0.0041206082527348101
leaf_weight=945 42252 700 155 308 1950 654 96 774 866 43 667 230 5282 283 1954 1654
leaf_count=945 42252 700 155 308 1950 654 96 774 866 43 667 230 5282 283 1954 1654
internal_value=1.98188e-05 -0.00180578 -0.00326243 -0.00219456 8.7692e-05 -0.000497657 0.00103425 0.00516814 -0.00100501 0.0023184 -0.00329202 0.00679904 -0.000956302 1.33141e-05 0.0014203 -0.00282228
internal_weight=58813 2108 1408 1253 56705 14453 3330 1100 2230 909 1321 1004 11123 5841 3904 1937
internal_count=58813 2108 1408 1253 56705 14453 3330 1100 2230 909 1321 1004 11123 5841 3904 1937
is_linear=0
shrinkage=0.1


Tree=55
num_leaves=17
num_cat=0
split_feature=5 8 0 0 0 9 0 0 9 5 9 0 1 9 1 7
split_gain=0.679303 0.973707 0.655531 0.966624 2.88011 2.98855 0.853361 1.12126 0.732623 0.635683 0.921218 0.638459 0.554044 1.45449 0.545843 0.821072
threshold=2.0488605738695864 1.0000000180025095e-35 2.007129359216631 1.8446143274351503 1.8747637862910171 1.0000000180025095e-35 1.807936780621888 1.818373131764303 1.0000000180025095e-35 -0.97177489559654051 1.0000000180025095e-35 1.0000000180025095e-35 0.28628859864469075 1.0000000180025095e-35 0.70401048737005356 1.0000000180025095e-35
decision_type=2 2 2 2 2 2 2 2 2 2 2 2 2 2 2 2
left_child=2 14 3 6 5 -5 9 8 -8 10 -1 -11 13 -6 15 -2
right_child=1 -3 -4 4 12 -7 7 -9 -10 11 -12 -13 -14 -15 -16 -17
leaf_value=-0.00014693987407792797 -0.012716825291885753 0.0018188564253468827 0.0038974453104590155 -0.0045592149579447979 -0.0012466709648757193 -0.028584211256473958 0.0051722685610531066 0.0007190006853259451 0.016958650148007567 0.00047067803243374258 -0.0043622607749097186 -0.00022341861425460255 -0.0017509836536694365 0.016029403692714765 -0.0022944374130074037 -0.002278251346545268
leaf_weight=1538 157 375 443 150 165 79 155 465 80 26460 782 26549 715 69 486 145
leaf_count=1538 157 375 443 150 165 79 155 465 80 26460 782 26549 715 69 486 145
internal_value=1.78291e-05 -0.00237481 6.61053e-05 3.6424e-05 -0.0027983 -0.0128604 9.60332e-05 0.00356535 0.00919304 5.21291e-05 -0.00156804 0.000123044 -0.00036854 0.00385345 -0.00437069 -0.00770882
internal_weight=58813 1163 57650 57207 1178 229 56029 700 235 55329 2320 53009 949 234 788 302
internal_count=58813 1163 57650 57207 1178 229 56029 700 235 55329 2320 53009 949 234 788 302
is_linear=0
shrinkage=0.1


Tree=56
num_leaves=17
num_cat=0
split_feature=2 1 1 0 1 0 9 7 9 1 1 1 0 1 9 0
split_gain=0.670277 0.638742 2.87858 1.44968 1.32767 4.5449 2.4237 1.59065 1.46728 1.2963 2.66487 1.15876 1.13375 0.977777 1.80568 2.07063
threshold=0.74020833614495241 0.34460709566944608 0.30597844518059342 0.75841779762927419 0.43361102374474614 -0.68450438069060249 1.0000000180025095e-35 1.0000000180025095e-35 1.0000000180025095e-35 0.27053936552217189 0.2340978054113142 0.3587561846873728 0.76735097062360502 0.69519262378974411 1.0000000180025095e-35 0.10200137433430755
decision_type=2 2 2 2 2 2 2 2 2 2 2 2 2 2 2 2
left_child=1 2 3 9 5 6 7 -3 -7 10 -1 -10 -5 14 15 -6
right_child=-2 4 -4 12 13 8 -8 -9 11 -11 -12 -13 -14 -15 -16 -17
leaf_value=0.00056019800405924982 -0.00052142757331822794 0.001032408249143222 0.0063574682335483983 -0.0091170681183345616 0.0031584404306777831 -0.0026724789691323445 -0.025237427436630423 -0.015628956104413366 -0.010324102956807803 -0.0082172684657574099 0.0070970138517253258 0.0057383598474037081 -0.00083515925274665773 -0.00051487985142568591 0.005157367430522506 -0.0034057862291321894
leaf_weight=20590 17874 114 809 170 954 984 113 115 50 162 643 431 5812 8265 963 968
leaf_count=20590 17874 114 809 170 954 984 113 115 50 162 643 431 5812 8265 963 968
internal_value=-1.01274e-05 0.000211997 0.000479146 0.000305402 -0.000369131 -0.00288352 -0.0132608 -0.00733843 -0.000459826 0.000690184 0.000758206 0.00406582 -0.00107075 3.83741e-05 0.00162335 -0.000147507
internal_weight=59017 41143 28186 27377 12957 1807 342 229 1465 21395 21233 481 5982 11150 2885 1922
internal_count=59017 41143 28186 27377 12957 1807 342 229 1465 21395 21233 481 5982 11150 2885 1922
is_linear=0
shrinkage=0.1


Tree=57
num_leaves=17
num_cat=0
split_feature=1 1 9 2 1 2 1 8 7 1 7 2 2 1 1 1
split_gain=0.55022 0.83854 1.22175 0.759263 0.736566 0.803861 0.860975 0.721863 0.685662 0.640308 0.530523 0.850643 0.945185 1.81668 1.09979 0.67699
threshold=-1.4897000745637892 -1.4931451270689766 1.0000000180025095e-35 0.44890404699613057 -1.4803593759920914 0.48654664427653993 -1.485997743909383 1.0000000180025095e-35 1.0000000180025095e-35 -1.4867885105074532 1.0000000180025095e-35 -0.12286549921820926 0.74020833614495241 0.34460709566944608 0.37151543159869266 2.5316630115028373
decision_type=2 2 2 2 2 2 2 2 2 2 2 2 2 2 2 2
left_child=1 -1 3 7 5 6 9 -3 -8 -2 15 -12 13 -13 -14 -6
right_child=4 2 -4 -5 10 -7 8 -9 -10 -11 11 12 14 -15 -16 -17
